tree
version=v4
num_class=1
num_tree_per_iteration=1
label_index=0
max_feature_idx=17
objective=binary sigmoid:1
feature_names=Column_0 Column_1 Column_2 Column_3 Column_4 Column_5 Column_6 Column_7 Column_8 Column_9 Column_10 Column_11 Column_12 Column_13 Column_14 Column_15 Column_16 Column_17
feature_infos=[2:18] [2:46] [0:1.7599644962220722] [-1.4426951595367387e-09:1.9999999942292199] [0.25:1] [0.043478259924385601:0.99999995652174101] [0:439] [0:1] [7:22] [0.20000000000000001:18] [0:1] [0:inf] [0:1] [0:1] [0:1] [0:1] [0:1] [0:1]
tree_sizes=4433 4355 4456 4396 4448 4377 4327 4307 4399 4418 4452 4446 4424 4424 4446 4496 4470 4444 4418 4460 4408 4446 4473 4470 4477 4377 4532 4416 4522 4466 4510 4362 4508 4422 4477 4441 4459 4470 4429 4510 4474 4412 4474 4554 4537 4450 4417 4409 4420 4382 4493 4417 4418 4385 4386 4435 4484 4469 4474 4471 4464 4463 4499 4523 4522 4513 4519 4319 4428 4341 4496 4461 4427 4391 4384 4442 4387 4379 4393 4329 4470 4438 4429 4377 4463 4475 4363 4451 4469 4411 4432 4396 4503 4324 4461 4446 4430 4402 4387 4405 4475 4520 4377 4515 4510 4417 4462 4430 4372 4438 4500 4313 4442 4427 4453 4403 4385 4462 4467 4507 4538 4343 4468 4483 4484 4400 4461 4481 4499 4452 4488 4452 4454 4435 4435 4402 4501 4390 4503 4455 4477 4447 4456 4324 4337 4473 4475 4466 4372 4427 4363 4530 4312 4366 4446 4367 4371 4379 4485 4356 4474 4395 4320 4337 4289 4261 4515 4364 4380 4513 4475 4467 4295 4355 4366 4497 4406 4380 4348 4362 4410 4325 4478 4294 4326 4407 4363 4405 4317 4308 4441 4335 4389 4265

Tree=0
num_leaves=41
num_cat=0
split_feature=11 5 8 8 11 8 16 12 8 1 14 15 6 11 8 1 6 6 1 15 12 6 11 17 9 1 6 6 1 1 2 8 3 9 1 6 9 12 9 1
split_gain=432.081 264.049 305.228 76.0196 72.1305 60.6948 70.3421 129.428 48.5541 40.3125 40.1205 115.703 39.0064 35.9918 34.3957 34.1428 32.6029 28.1182 21.5294 23.0182 50.7038 20.9943 22.866 21.873 19.8748 22.4881 19.351 17.8199 16.8862 15.4424 14.7005 16.4502 15.5177 14.4331 12.8928 11.398 11.0866 11.0627 23.0464 10.8559
threshold=1.4166666666666667 0.2952069575400732 11.500000000000002 14.500000000000002 0.5277777777777779 14.500000000000002 1.0000000180025095e-35 0.77500000000000013 10.500000000000002 3.5000000000000004 1.0000000180025095e-35 0.87500000000000011 104.13333333333334 inf 12.500000000000002 6.5000000000000009 77.125000000000014 12.308333333333335 5.5000000000000009 0.87500000000000011 1.0000000180025095e-35 27.375000000000004 1.0000000180025095e-35 0.83333333333333337 2.598214285714286 5.5000000000000009 16.208333333333336 13.791666666666668 6.5000000000000009 7.5000000000000009 0.0078796595988972016 10.500000000000002 1.0000000180025095e-35 1.7750000000000001 9.5000000000000018 23.324999999999999 2.3250000000000006 0.77500000000000013 1.8920454545454546 7.5000000000000009
decision_type=10 2 2 2 8 2 2 2 2 2 2 2 2 8 2 2 2 2 2 2 2 2 8 2 2 2 2 2 2 2 2 2 2 2 2 2 2 2 2 2
left_child=1 2 8 17 10 6 7 12 13 16 11 -4 29 -1 24 37 -3 -2 -15 34 33 22 -17 -24 30 -26 -25 -9 -29 -6 31 32 -11 -21 -20 -28 -18 -10 -39 -8
right_child=3 9 4 -5 5 -7 39 27 15 14 -12 -13 -14 18 -16 21 36 -19 19 20 -22 -23 23 26 25 -27 35 28 -30 -31 -32 -33 -34 -35 -36 -37 -38 38 -40 -41
leaf_value=-2.7234608446762398 -2.7433675850714825 -2.7557868488057982 -2.7488151734993331 -2.7396520396275363 -2.7437409217391706 -2.7520344974673052 -2.7511783549000306 -2.7433675850714825 -2.7474456531847662 -2.7312767358043351 -2.7513511958949564 -2.5778399066707207 -2.6843586529186152 -2.7206469398525925 -2.7534218418500216 -2.7463015275084328 -2.7249564295196329 -2.5913609010903196 -2.703718253649825 -2.6482582261137639 -2.730989764016694 -2.7097621634560847 -2.7433675850714825 -2.7320261878899768 -2.7405541853787012 -2.6782128492672737 -2.6738395276009932 -2.7149264952961354 -2.6733751823428986 -2.731570440904576 -2.7551538597025051 -2.7463894138588789 -2.7461678306477073 -2.7433675850714825 -2.7433675850714825 -2.7433675850714825 -2.7494162895774159 -2.7376211680251594 -2.6673095977885781 -2.7399952260243601
leaf_weight=41.825627757236362 0.19314256589859891 247.82474134163931 2.189895386807621 1.1616954784840343 26.474038636311889 44.059276647865772 29.939718991518021 0.68388067604974168 16.360361696220934 34.885459684301168 167.08436189591885 0.93730936199426651 2.8488518372178078 13.258673120290039 90.234473375603557 8.7993409251794255 8.4386231251992267 4.1610854570753872 14.073840884491803 5.7119078873656708 2.7977262544445693 17.811717833857983 4.1923484918661407 4.4820305467583248 4.3627489656209955 1.7837280877865851 3.291944156866522 4.5729334927164009 9.0066905934363604 46.598475915845484 18.490556825883687 70.832161271944642 16.877251375466585 0.23006683308631182 1.7524843933060765 0.63339388184249401 3.9793041353113949 16.454040555749092 0.97423365851864219 30.067747959401459
leaf_count=12122 23 86239 585 185 8509 14305 10029 173 5346 11219 57128 250 907 3649 30404 2762 2674 503 3941 1134 650 5339 1242 1244 1280 523 793 1137 2238 14976 6154 23390 5428 46 491 152 1261 5183 307 10072
internal_value=-2.74337 -2.74401 -2.73732 -2.62491 -2.74394 -2.73841 -2.73428 -2.72676 -2.72138 -2.75101 -2.75036 -2.70376 -2.73404 -2.71392 -2.74689 -2.72979 -2.75469 -2.59874 -2.70388 -2.69561 -2.67541 -2.72118 -2.73159 -2.71978 -2.74302 -2.71931 -2.70728 -2.68938 -2.68594 -2.73624 -2.74391 -2.74237 -2.73651 -2.65249 -2.70799 -2.68394 -2.73435 -2.74035 -2.73258 -2.74525
internal_weight=1020.34 1014.82 517.113 5.51592 364.463 194.252 150.192 90.1849 152.65 497.709 170.212 3.1272 75.9214 79.6503 237.466 72.9994 260.243 4.35423 37.8247 24.566 8.7397 39.2108 21.3991 12.5997 147.232 6.14648 8.40737 14.2635 13.5796 73.0725 141.085 122.595 51.7627 5.94197 15.8263 3.92534 12.4179 33.7886 17.4283 60.0075
internal_count=338598 337720 167146 878 121268 63071 47882 27781 45878 170574 58197 835 24165 23084 80014 22794 90560 526 10410 6464 2032 11753 6717 3733 48758 1803 2333 3616 3375 23485 46955 40483 16647 1180 4432 945 3935 11041 5490 20101
is_linear=0
shrinkage=1


Tree=1
num_leaves=41
num_cat=0
split_feature=11 5 8 11 8 17 12 8 8 1 14 15 6 8 11 6 1 6 9 1 6 11 17 1 15 12 6 6 1 2 8 3 9 9 5 1 6 6 5 13
split_gain=379.581 257.609 290.43 70.3679 58.8138 67.0673 117.223 55.5098 44.4881 40.0226 37.9022 95.0421 35.3802 33.8664 32.1906 32.1231 32.0485 21.6099 19.0493 19.8881 19.0324 21.7365 20.3624 18.5377 18.7406 41.0545 16.6714 16.0962 14.8181 14.4465 15.9226 14.9164 13.7589 12.2008 11.8314 11.7129 10.8536 23.4953 22.5715 11.6884
threshold=1.4166666666666667 0.2952069575400732 11.500000000000002 0.5277777777777779 14.500000000000002 0.83333333333333337 0.77500000000000013 14.500000000000002 10.500000000000002 3.5000000000000004 1.0000000180025095e-35 0.87500000000000011 104.13333333333334 12.500000000000002 inf 77.125000000000014 6.5000000000000009 12.308333333333335 2.598214285714286 5.5000000000000009 27.375000000000004 1.0000000180025095e-35 0.83333333333333337 5.5000000000000009 0.87500000000000011 1.0000000180025095e-35 16.208333333333336 13.791666666666668 7.5000000000000009 0.0078796595988972016 10.500000000000002 1.0000000180025095e-35 2.3250000000000006 1.7750000000000001 0.27272725413223281 9.5000000000000018 27.991666666666671 38.091666666666676 0.23904760857868523 0.58333333333333337
decision_type=10 2 2 8 2 2 2 2 2 2 2 2 2 2 8 2 2 2 2 2 2 8 2 2 2 2 2 2 2 2 2 2 2 2 2 2 2 2 2 2
left_child=1 2 8 10 5 -5 12 17 14 15 11 -4 28 18 -1 -3 -10 -2 29 -20 21 -18 -23 -16 35 33 -24 -8 -7 30 31 -11 34 -26 36 -25 38 -38 39 -29
right_child=7 9 3 4 -6 6 27 -9 16 13 -12 -13 -14 -15 23 -17 20 -19 19 -21 -22 22 26 24 25 -27 -28 32 -30 -31 -32 -33 -34 -35 -36 -37 37 -39 -40 -41
leaf_value=0.019296740839127812 0 -0.012388200625943492 -0.0054004559670986817 -0.0018590137354765116 -0.0086164790392963212 -0.00036859798237247609 0 0.0036536471945314074 0.002967101787028767 0.011801952128903418 -0.0079324082796417977 0.14127634235409631 0.055265380064454542 -0.01000803683916611 0.021970096060722887 0.0087889196022954228 -0.0029021897353843583 0.13126467948837511 0.0027687495847344822 0.060692920298833865 0.032184857944867029 0 0.011077521195152819 0.037771615064013372 0.086302088008981995 0.01207875062003042 0.055686652164728422 0 0.011518010425667533 -0.01175011621075869 -0.0029892625138013855 -0.0027695257509539992 0 0 0 0 0 0.053713961051770558 0 0.10342270582804355
leaf_weight=42.564412645995617 0.19314246391877699 245.13152760383673 2.1794299837201838 59.89169531990774 43.724660675507039 26.466395996510983 0.68431603931822138 1.1654951842501757 33.880337291164324 35.257254366762936 165.9132756202016 1.0823504719883204 2.9999277892056853 89.439951123669744 13.525751227978615 12.534339450066907 8.7766727369744366 4.749448939692229 4.3735504359938213 1.8884109708014876 18.344567145919427 4.1923318917397401 4.5269201982300737 14.57171560125426 6.2067206655628997 2.828309994423762 4.1318387158680707 0.16188126406632575 47.083915695315227 18.299822112545371 70.644293920136988 16.835743710398674 0.53462432813830674 0.23006683611311018 0.42753496975637972 1.7524844165891409 1.0902534178458161 8.1964123630896193 0.59879185352474451 3.2545341597870001
leaf_count=12029 21 86155 558 18943 14134 8451 166 168 10457 11267 57075 277 947 30229 3600 4405 2726 505 1259 544 5394 1218 1220 3956 1138 620 1113 27 15034 6092 23301 5380 126 42 99 476 270 2029 112 539
internal_value=0 -0.000635581 0.00593995 -0.000563151 0.00487123 0.00889458 0.016145 0.105481 0.021296 -0.0075883 -0.00694518 0.0373381 0.00912276 -0.00348535 0.0283383 -0.0112829 0.0132454 0.125577 0.000343849 0.0233273 0.0214731 0.0114927 0.0228296 0.0376825 0.0452313 0.0632353 0.0345993 0.0508112 0.00697761 -0.000539389 0.000974433 0.00672116 0.0539341 0.0827069 0.0565921 0.0338274 0.0588712 0.0457249 0.0844571 0.0978427
internal_weight=1020.34 1014.23 519.822 364.29 195.115 151.39 91.4986 6.10809 155.532 494.405 169.175 3.26178 76.5502 236.739 81.6795 257.666 73.8527 4.94259 147.299 6.26196 39.9723 21.6278 12.8511 39.115 25.5893 9.2651 8.65876 14.9483 73.5503 141.037 122.737 52.093 14.264 6.43679 13.7294 16.3242 13.3019 9.28667 4.01521 3.41642
internal_count=338598 337720 167146 121268 63071 47882 27781 878 45878 170574 58197 835 24165 80014 23084 90560 22794 526 48758 1803 11753 6717 3733 10410 6464 2032 2333 3616 23485 46955 40483 16647 3375 1180 3194 4432 3048 2299 749 566
is_linear=0
shrinkage=0.0134208


Tree=2
num_leaves=41
num_cat=0
split_feature=11 5 8 11 8 16 12 8 8 1 13 15 8 6 6 1 11 9 1 6 11 15 6 1 15 12 6 2 8 4 4 1 9 6 8 6 5 1 12 9
split_gain=338.06 251.277 276.64 68.6069 56.9641 63.9983 106.869 41.7944 40.8556 39.7256 35.9305 80.2137 33.3434 32.2654 31.7097 30.1038 28.9031 18.2738 17.6738 17.297 20.6741 19.6707 17.2664 16.0339 15.3651 33.6494 14.5742 14.1967 15.4131 14.3438 14.0245 13.6278 12.4073 11.693 11.2109 13.0059 11.0248 10.8487 10.6748 20.454
threshold=1.4166666666666667 0.2952069575400732 11.500000000000002 0.5277777777777779 14.500000000000002 0.41666666666666669 0.77500000000000013 14.500000000000002 10.500000000000002 3.5000000000000004 1.0000000180025095e-35 0.87500000000000011 12.500000000000002 104.13333333333334 77.125000000000014 6.5000000000000009 inf 2.598214285714286 5.5000000000000009 27.375000000000004 1.0000000180025095e-35 0.87500000000000011 12.308333333333335 5.5000000000000009 0.87500000000000011 1.0000000180025095e-35 13.791666666666668 0.0078796595988972016 10.500000000000002 0.91666666666666685 0.91666666666666685 7.5000000000000009 2.3250000000000006 16.475000000000005 9.5000000000000018 15.408333333333335 0.2499999739583362 7.5000000000000009 0.77500000000000013 1.8920454545454546
decision_type=10 2 2 8 2 2 2 2 2 2 2 2 2 2 2 2 8 2 2 2 8 2 2 2 2 2 2 2 2 2 2 2 2 2 2 2 2 2 2 2
left_child=1 2 8 10 5 6 13 22 16 14 11 -4 17 31 -3 38 -1 27 -19 20 -17 30 -2 -18 34 -26 -8 28 29 -11 -22 -5 -28 -32 -25 -36 -23 -7 -10 -40
right_child=7 9 3 4 -6 37 26 -9 15 12 -12 -13 -14 -15 -16 19 23 18 -20 -21 21 36 -24 24 25 -27 32 -29 -30 -31 33 -33 -34 -35 35 -37 -38 -39 39 -41
leaf_value=0.01871637796743739 0 -0.012356946209156811 -0.0053535408167078953 -0.00013331518022706001 -0.0085660343877631863 -0.0080913316317375913 0 0.0035929821313876453 -0.0040670902150213486 -0.002739236146883481 -0.007881211263289653 0.12351740154746767 -0.0099617307251103019 0.051950222211315997 0.0086039062312496927 -0.0028705653283295591 0.021259716772430215 0.0027249005620196701 0.056785690056883158 0.030866894246470242 -0.00042962062918159693 0.051288871776040003 0.11571199201247021 0.049384394849281844 0.075893288953980911 0.011790228738051379 0.053113145844706756 -0.011713877661119613 -0.002956961971311468 0.011522701037611513 0 0.011075733119235339 0 0.060536611600464842 -0.00017514339771259007 0.028729108383864128 0 0.0032616554654990048 0.005586111898387959 0.069954597741765615
leaf_weight=43.289883568650112 0.19314252818003463 242.47000201814808 2.1690969732590024 26.975880082929507 43.39410513988696 29.168076351284981 0.68464943696744995 1.1692419052124021 16.344361818861216 16.794937188271433 164.75826289039105 1.2203110689297318 88.655031291767955 3.1474885544739664 12.631365761393679 8.7543011116795277 13.788341800682245 4.3842022132594147 1.9905312308110297 18.867493452038616 6.2286280423868439 4.408756072167308 5.3112945547327399 6.2242086203768912 6.9163260159548381 2.8584285418037325 14.425829812418668 18.11134741990827 70.458656614180654 35.62424635887146 0.56063623377122107 48.944077381631359 0.53462432813830674 1.3540298021398482 2.3134628788102445 8.2746067133266461 0.5480516292154789 28.725535012548789 16.580477417912338 1.0439397455193102
leaf_count=11944 18 86076 534 8563 13964 9818 158 154 5312 5334 57024 301 30055 986 4484 2691 3555 1240 563 5445 1916 1092 508 1641 1438 594 3254 6032 23213 11313 134 15535 121 325 648 2316 136 9670 5165 325
internal_value=0 -0.000627686 0.00582984 -0.000558243 0.00477929 0.00870089 0.015522 0.095206 0.0206418 -0.00753726 -0.006895 0.0353352 -0.00344969 0.0088786 -0.0112432 0.0129243 0.0273001 0.000336669 0.0226413 0.0207946 0.0112134 0.0221025 0.111151 0.0360242 0.0429534 0.0591274 0.0478594 -0.000534561 0.000955704 0.00658405 0.00637573 0.00683804 0.0507032 0.0386215 0.0323987 0.0205859 0.0440351 -0.00212396 0.00291959 0.0104968
internal_weight=1020.3 1013.62 522.504 364.148 196 152.606 94.7125 6.67368 158.356 491.12 168.148 3.38941 236.019 79.0674 255.101 74.6907 83.6653 147.364 6.37473 40.7219 21.8544 13.1001 5.50444 40.3754 26.587 9.77475 15.6451 140.989 122.878 52.4192 8.14329 75.92 14.9605 1.91467 16.8123 10.5881 4.95681 57.8936 33.9688 17.6244
internal_count=338598 337720 167146 121268 63071 47882 28394 878 45878 170574 58197 835 80014 24778 90560 22794 23084 48758 1803 11753 6717 3733 526 10410 6464 2032 3616 46955 40483 16647 2505 24098 3375 459 4432 2964 1228 19488 11041 5490
is_linear=0
shrinkage=0.0134208


Tree=3
num_leaves=41
num_cat=0
split_feature=11 5 8 11 8 16 12 1 8 14 15 8 8 6 6 1 11 6 9 6 11 17 1 2 8 1 3 6 6 1 15 12 9 1 9 12 9 1 5 9
split_gain=304.323 245.12 263.569 66.9165 55.2081 61.0822 97.2099 39.4278 37.6752 34.1584 69.074 33.0446 32.8273 31.3053 29.4959 28.24 26.0434 19.2657 17.5439 15.8339 19.5853 18.1613 15.7719 13.9514 14.9225 13.9241 13.7983 13.3389 13.2731 13.0877 12.7144 27.8956 11.2669 10.6321 10.4115 10.3399 18.3119 10.2703 10.1143 9.80234
threshold=1.4166666666666667 0.2952069575400732 11.500000000000002 0.5277777777777779 14.500000000000002 0.41666666666666669 0.77500000000000013 3.5000000000000004 10.500000000000002 1.0000000180025095e-35 0.87500000000000011 15.500000000000002 12.500000000000002 77.125000000000014 104.13333333333334 6.5000000000000009 inf 12.308333333333335 2.598214285714286 27.375000000000004 1.0000000180025095e-35 0.83333333333333337 5.5000000000000009 0.0078796595988972016 10.500000000000002 5.5000000000000009 1.0000000180025095e-35 16.208333333333336 13.791666666666668 7.5000000000000009 0.87500000000000011 1.0000000180025095e-35 2.3250000000000006 7.5000000000000009 2.3250000000000006 0.77500000000000013 1.8920454545454546 9.5000000000000018 0.27272725413223281 1.7750000000000001
decision_type=10 2 2 8 2 2 2 2 2 2 2 2 2 2 2 2 8 2 2 2 8 2 2 2 2 2 2 2 2 2 2 2 2 2 2 2 2 2 2 2
left_child=1 2 8 9 5 6 14 13 16 10 -4 17 18 -3 29 35 -1 -2 23 20 -17 -22 -20 24 26 -18 -9 -23 -8 -5 37 39 38 -7 -15 -10 -37 -27 -30 -32
right_child=11 7 3 4 -6 33 28 12 15 -11 -12 -13 -14 34 -16 19 25 -19 22 -21 21 27 -24 -25 -26 30 -28 -29 32 -31 31 -33 -34 -35 -36 36 -38 -39 -40 -41
leaf_value=0.0181641455611951 0 -0.012325654743517264 -0.0053068190559084271 -0.00013146308946382896 -0.0085155623687445028 -0.0080401846958313653 0 0.011253355734199475 -0.0040269806121628294 -0.0078299847818563001 0.10991030630452453 0 -0.0099153498947393802 0.017368943705604351 0.048993017226270932 -0.0028392635947891423 0.020586258079714512 0.099992691813902898 0.0026818661347939214 0.029640723908932392 0 0.010396101089634766 0.053334396926572068 -0.011677554185636726 -0.0029249205478756824 0.034585729120622397 -0.0027088625826748279 0.050124414014892933 0.052007781834387312 0.010820864591585436 0.073065764931744659 0.011511712783611329 0 0.0032086126747563372 -0.0061402214431274674 0.0054839838769378674 0.064934086097057725 0 0 0
leaf_weight=44.002578359330073 0.28204477392137217 239.841093322495 2.1588950268924241 26.972270063124597 43.067754794145003 28.960997304879129 0.6842268991749777 35.984987653559074 16.2859731616918 163.6189164170064 1.3520025983452797 0.5477526756003499 87.879597838968039 8.7078082098159921 3.2916590024251491 8.732221521204341 14.046515302034093 6.3856325773522258 4.3947086145635703 19.380733664380386 4.2425642411690196 4.6467634479049602 2.0901887575164437 17.925113002303988 70.275698563084006 15.499955263221642 16.754356566816568 4.4820364469196647 14.65378876798786 49.421243108576164 7.1326640660408902 2.888090152060613 0.53462432813830674 28.807983204489574 4.0191562059335411 16.661985124461356 1.1090932758525014 1.793660718947649 0.44779890007339418 0.24585727509111166
leaf_count=11865 29 85997 513 8508 13800 9770 152 11359 5280 56974 322 67 29883 2692 1024 2654 3514 658 1222 5491 1184 1188 581 5972 23127 3972 5288 1145 3099 15590 1141 572 115 9718 1243 5147 343 460 95 39
internal_value=0 -0.000619888 0.00572263 -0.0005524 0.00469198 0.00851688 0.0151043 -0.00748634 0.0200154 -0.00684493 0.0335499 0.0868496 -0.00341429 -0.0112034 0.00869049 0.0126047 0.0263285 0.0951586 0.000329709 0.0201284 0.0109124 0.0213402 0.0219922 -0.000529711 0.000937381 0.034498 0.00645087 0.0320217 0.0452342 0.00670061 0.0408861 0.0555416 0.047839 -0.0020957 0.00842424 0.00287191 0.0102832 0.0310667 0.0500397 0.0701529
internal_weight=1020.21 1013 525.123 363.972 196.842 153.775 96.0056 487.873 161.151 167.13 3.5109 7.21543 235.305 252.568 79.6852 75.5414 85.6093 6.66768 147.425 41.4843 22.1036 13.3714 6.4849 140.94 123.015 41.6067 52.7393 9.1288 16.3204 76.3935 27.5602 10.2666 15.6362 57.769 12.727 34.0571 17.7711 17.2936 15.1016 7.37852
internal_count=338598 337720 167146 121268 63071 47882 28394 170574 45878 58197 835 878 80014 90560 24778 22794 23084 687 48758 11753 6717 3733 1803 46955 40483 10410 16647 2333 3616 24098 6464 2032 3375 19488 3935 11041 5490 4432 3194 1180
is_linear=0
shrinkage=0.0134208


Tree=4
num_leaves=41
num_cat=0
split_feature=11 5 8 11 8 16 12 1 8 14 15 8 6 8 6 1 11 9 6 6 11 15 1 2 8 4 4 1 6 1 5 1 1 12 9 6 9 15 12 5
split_gain=275.038 239.178 251.423 65.2645 53.5133 58.3228 88.632 39.1342 34.7396 32.5522 60.417 32.3173 30.857 28.2139 27.0531 26.5849 23.5391 16.8559 16.3031 14.4436 18.666 17.421 14.1262 13.7101 14.4483 13.2782 13.0492 12.5749 12.1515 12.1276 10.5514 10.4229 10.4197 10.0183 16.4805 10.0103 9.98926 9.62316 22.223 9.51398
threshold=1.4166666666666667 0.2952069575400732 11.500000000000002 0.5277777777777779 14.500000000000002 0.41666666666666669 0.77500000000000013 3.5000000000000004 10.500000000000002 1.0000000180025095e-35 0.87500000000000011 12.500000000000002 77.125000000000014 15.500000000000002 104.13333333333334 6.5000000000000009 inf 2.598214285714286 12.308333333333335 27.375000000000004 1.0000000180025095e-35 0.58333333333333337 5.5000000000000009 0.0078796595988972016 10.500000000000002 0.91666666666666685 0.91666666666666685 7.5000000000000009 13.791666666666668 5.5000000000000009 0.11111110751028817 6.5000000000000009 7.5000000000000009 0.77500000000000013 1.8920454545454546 16.475000000000005 2.3250000000000006 0.87500000000000011 1.0000000180025095e-35 0.2499999739583362
decision_type=10 2 2 8 2 2 2 2 2 2 2 2 2 2 2 2 8 2 2 2 8 2 2 2 2 2 2 2 2 2 2 2 2 2 2 2 2 2 2 2
left_child=1 2 8 9 5 6 14 12 16 10 -4 17 -3 18 27 33 -1 23 -2 20 -17 26 -19 24 25 -9 -22 -5 -8 -18 -31 -30 -7 -10 -35 -28 -14 -32 -39 -23
right_child=13 7 3 4 -6 32 28 11 15 -11 -12 -13 36 -15 -16 19 29 22 -20 -21 21 39 -24 -25 -26 -27 35 -29 31 30 37 -33 -34 34 -36 -37 -38 38 -40 -41
leaf_value=0.017637231442322317 0 -0.01229442438859827 -0.0052603031129104102 -0.00012998806050946792 -0.0084650792712707736 -0.0079890675637073368 0 -0.0026789248851812912 -0.0039871202482767076 -0.0077787886294144052 0.099129811904370049 -0.0098688834172674985 0.016875944909597172 0 0.046338056495446034 -0.0028082140993905482 0.019947010680090877 0.0026396106474958492 0.090819512326512919 0.028497014122740381 -0.0020437074739215032 0.045540811798998458 0.050262641766213492 -0.011641144858875222 -0.0028931689765880476 0.010992677109815744 0 0.010574447347616962 0.022566710161758603 0 0.031147009144371747 0.054347639635952676 0.0031565812821818529 0.0053842509838804729 0.060572702562634965 0.054141998351834544 -0.0060907878845533614 0.066138882955468131 0.012101303315041235 0
leaf_weight=44.704567229142413 0.28204476786777544 237.24179085367359 2.1488229688256983 26.969447781564668 42.745204214239493 28.756642413325608 0.68478483264334755 16.714682304300368 16.228427231777459 162.49148676265031 1.4779893020167947 87.113535744138062 8.8409939392004144 0.5477526756003499 3.4325545059982687 8.7104173928964919 14.300406519556416 4.4050669069401929 6.9322573719546199 19.884518405655399 5.9477581719402224 5.0502580797765413 2.1874739604536444 17.741094656288624 70.094909535720944 36.341329902410507 0.5663908368442222 49.891058700159192 5.2792957581114051 0.70089252153411763 17.250293979188431 11.022985331714153 28.889283806318417 16.74232329661027 1.172541072126478 1.4781366940587757 3.9975437070243061 7.7377518778666863 2.8225260777398944 0.56796977599151433
leaf_count=11792 27 85911 495 8456 13639 9722 146 5244 5248 56926 340 29712 2710 62 1059 2621 3477 1205 660 5537 1790 1194 598 5913 23042 11403 127 15642 1093 159 3864 2282 9766 5131 359 332 1225 1447 528 134
internal_value=0 -0.000612104 0.0056192 -0.00054677 0.00460622 0.00833759 0.0147025 -0.00743586 0.0194261 -0.00679502 0.0319447 -0.00337918 -0.011164 0.0795827 0.00850787 0.012307 0.0254156 0.000322827 0.0867103 0.0195189 0.0106538 0.020691 0.0213769 -0.000524968 0.000919286 0.00632085 0.00505642 0.00656661 0.0428434 0.0330859 0.0389971 0.0452428 -0.00206772 0.00282527 0.0100766 0.0351767 0.00821745 0.0403415 0.0535284 0.0394878
internal_weight=1020.1 1012.33 527.655 363.79 197.671 154.926 97.2801 484.678 163.865 166.118 3.62681 234.598 250.08 7.76205 80.2931 76.3487 87.5164 147.485 7.2143 42.2054 22.3209 13.6105 6.59254 140.892 123.151 53.056 7.99229 76.8605 16.9871 42.8119 28.5115 16.3023 57.6459 34.1433 17.9149 2.04453 12.8385 27.8106 10.5603 5.61823
internal_count=338598 337720 167146 121268 63071 47882 28394 170574 45878 58197 835 80014 90560 878 24778 22794 23084 48758 687 11753 6717 3733 1803 46955 40483 16647 2405 24098 3616 10410 6464 3375 19488 11041 5490 459 3935 6230 1975 1328
is_linear=0
shrinkage=0.0134208


Tree=5
num_leaves=41
num_cat=0
split_feature=11 5 8 11 8 17 12 1 8 8 14 15 6 1 6 8 11 9 6 2 8 6 11 16 3 1 1 9 6 1 11 6 1 5 12 9 9 6 6 8
split_gain=250.458 233.395 239.839 63.6885 51.9104 55.7763 81.4432 38.8388 32.1328 31.8137 31.086 53.5099 30.4193 24.9876 24.8863 24.4624 21.318 16.2063 14.0313 13.4731 13.9911 13.2707 17.7199 16.2853 12.7825 12.6933 12.0861 11.4773 10.8706 10.5723 10.4661 11.7177 10.2111 9.81304 9.70937 14.9 9.5901 9.50718 9.44146 9.30719
threshold=1.4166666666666667 0.2952069575400732 11.500000000000002 0.5277777777777779 14.500000000000002 0.58333333333333337 0.77500000000000013 3.5000000000000004 10.500000000000002 12.500000000000002 1.0000000180025095e-35 0.87500000000000011 77.125000000000014 6.5000000000000009 104.13333333333334 15.500000000000002 inf 2.598214285714286 12.308333333333335 0.0078796595988972016 10.500000000000002 27.375000000000004 1.0000000180025095e-35 1.0000000180025095e-35 1.0000000180025095e-35 4.5000000000000009 7.5000000000000009 2.3250000000000006 16.208333333333336 5.5000000000000009 inf 13.525 7.5000000000000009 0.11111110751028817 0.77500000000000013 1.8920454545454546 2.3250000000000006 13.791666666666668 38.775000000000006 12.500000000000002
decision_type=10 2 2 8 2 2 2 2 2 2 2 2 2 2 2 2 8 2 2 2 2 2 8 2 2 2 2 2 2 2 8 2 2 2 2 2 2 2 2 2
left_child=1 2 8 10 5 32 14 12 16 17 11 -4 -3 34 26 18 -1 19 -2 20 24 22 -15 28 -9 -19 -7 37 -24 -18 -27 -32 -5 -31 38 -36 -14 -8 -10 -28
right_child=15 7 3 4 -6 6 27 9 13 -11 -12 -13 36 21 -16 -17 29 25 -20 -21 -22 -23 23 -25 -26 30 39 -29 -30 33 31 -33 -34 -35 35 -37 -38 -39 -40 -41
leaf_value=0.017133643242949245 0 -0.012263061141983849 -0.0052140026930373113 -0.0079377804436235513 -0.0084145794054842644 -0.00012817762438843895 0 0.010740928641123495 -0.009755400453782757 -0.0098223344943962135 -0.0077277184523727753 0.090365519378770284 0.016404620387859684 -0.0027774056107517059 0.0439406806198432 0 0.019339209221014307 0 0.083238659943943916 -0.011604646181612296 -0.0028616586401464914 0.02742766636268705 0.0097438155619573932 0 -0.0026492695684973032 0.0056949506191466496 0.020419904396688615 0 0.045542451209845243 0 0 0.091948587618077893 0.0031055380076291232 0.038511965533080193 0.0052868120456035471 0.05674694920233634 -0.006041515981987153 0.044931053048233735 0.015301567712915978 0.0060265215479691787
leaf_weight=45.39579210197553 0.28204470896162082 234.67316480423324 2.1388788139447574 28.554773753974587 42.426887281937525 26.966939636040479 0.53657142608427122 36.69173550279811 13.195525632472711 86.356768974103034 161.37881592707708 1.598695257678628 8.9720398101489973 8.6889106736052817 3.5702815079130232 0.5477526756003499 14.550020677503197 3.6880264102946976 7.4582768338732421 17.559271071804687 69.916673944797367 20.379067017929628 4.7671141845639786 4.2869696542620659 16.675073511898518 1.699358308920639 13.731634876457973 0.69896885217167437 4.8171971840783954 0.70089177112095313 0.23135254485532653 1.079015598632395 28.969461865490302 28.746675706701353 16.82152652437799 1.2343540966976434 3.9762027317192405 16.372506212443113 2.9760083197616041 36.622370824683458
leaf_count=11723 25 85825 478 9674 13484 8405 107 11445 4529 29542 56880 357 2727 2587 1094 58 3443 993 662 5854 22959 5578 1160 1154 5202 347 4119 144 1173 154 34 161 9814 6310 5115 375 1208 3276 1022 10987
internal_value=0 -0.000604385 0.00551842 -0.000539929 0.00452568 0.00816851 0.0143268 -0.00738546 0.0188587 -0.00334434 -0.00674539 0.0304911 -0.0111244 0.0120109 0.00833069 0.073474 0.0245535 0.000316117 0.079685 -0.000520241 0.000901541 0.0189186 0.0103743 0.0200076 0.00619439 0.0207927 0.00643613 0.0407736 0.0297558 0.0317693 0.0414939 0.0731517 -0.0020399 0.0372538 0.00277964 0.00987656 0.0080172 0.0430519 -0.00394756 0.0103359
internal_weight=1019.93 1011.65 530.127 363.567 198.45 156.024 98.4993 481.519 166.56 233.897 165.116 3.73757 247.621 77.1667 80.8912 8.28807 89.3934 147.541 7.74032 140.843 123.283 42.9393 22.5602 13.8713 53.3668 6.69775 77.3209 17.608 9.58431 43.9976 3.00973 1.31037 57.5242 29.4476 34.2274 18.0559 12.9482 16.9091 16.1715 50.354
internal_count=338598 337720 167146 121268 63071 47882 28394 170574 45878 80014 58197 835 90560 22794 24778 878 23084 48758 687 46955 40483 11753 6717 3733 16647 1803 24098 3616 2333 10410 615 195 19488 6464 11041 5490 3935 3383 5551 15106
is_linear=0
shrinkage=0.0134208


Tree=6
num_leaves=41
num_cat=0
split_feature=5 10 8 1 8 17 12 6 1 11 6 8 6 8 15 11 17 11 15 6 12 1 8 9 11 1 3 8 6 9 15 6 5 11 1 6 5 1 6 6
split_gain=244.646 195.593 179.083 95.9165 63.2293 90.8278 98.0268 43.121 35.1748 28.8776 26.8252 25.0387 22.3729 20.8978 19.5241 18.5398 16.1689 23.3905 19.1789 20.3691 17.8613 15.9622 23.2505 21.5049 16.0889 15.7072 14.676 14.5058 13.9189 13.4065 12.6837 12.5458 11.8113 11.4298 12.7055 11.4035 11.2405 12.5575 10.8013 10.6527
threshold=0.33333331296296426 0.29166666666666669 11.500000000000002 5.5000000000000009 14.500000000000002 0.83333333333333337 0.77500000000000013 118.10833333333333 11.500000000000002 inf 70.408333333333346 9.5000000000000018 104.13333333333334 15.500000000000002 1.0000000180025095e-35 1.0000000180025095e-35 0.58333333333333337 1.0000000180025095e-35 0.87500000000000011 17.408333333333335 0.77500000000000013 3.5000000000000004 12.500000000000002 2.598214285714286 inf 7.5000000000000009 -1.0000000180025095e-35 13.500000000000002 65.941666666666677 1.7750000000000001 0.87500000000000011 13.925000000000002 0.24999999032738127 1.0000000180025095e-35 7.5000000000000009 13.525 0.14285713435374198 10.500000000000002 33.925000000000004 56.225000000000001
decision_type=2 2 2 2 2 2 2 2 2 8 2 2 2 2 2 8 2 8 2 2 2 2 2 2 8 2 2 2 2 2 2 2 2 8 2 2 2 2 2 2
left_child=1 2 3 14 5 33 9 8 15 -7 21 38 25 -3 -1 28 20 -18 19 -19 -13 -2 23 -23 -25 -11 -21 -14 -8 39 36 -10 -16 -4 -35 -26 37 -22 -5 -20
right_child=10 13 4 11 -6 6 7 -9 31 12 -12 16 27 -15 32 -17 17 18 29 26 30 22 -24 24 35 -27 -28 -29 -30 -31 -32 -33 -34 34 -36 -37 -38 -39 -40 -41
leaf_value=0.01293172637077954 -0.012154281972601755 0.074792095783410936 -0.01123723407405227 0.036874485517085054 -0.011270922593193265 -0.0052389910048458227 -0.0019195240871473145 0.065481784008309313 0 -0.0014209369942292621 0.0054488979388974974 0 0.05900691807623553 0 0.0069793375391670066 0.025017397614077747 0.011944319155050013 0 0.048101726025061999 0.055093580203127983 0.054109654459192386 -0.00079761417774092147 -0.011623542822124987 0 0 0.0098826727749241599 0.0056241866844183785 0 0.022943672318653689 0 0.0058286632483237535 0.064198380418675052 -0.0031076989108202897 -0.0079889729031928283 0.0030072408464403527 0.081683280029205274 0.016031726331674958 0 0 0
leaf_weight=33.256139306817204 229.84931782842614 7.8556138968560836 64.397553983144462 21.586057032225657 92.313951824093238 58.769780828850344 13.541184799745681 4.6222131063695997 0.42089767218567509 34.916609529638663 19.389138682512566 15.989091082941739 2.4743605945259342 0.51998592866584659 33.688234725268558 16.48321515833959 23.761670876294374 7.4181848515290794 14.898583457339557 3.3866269784048209 4.2207208035979455 41.245494421105832 48.487423303537071 1.9030179625842742 0.27592345606535684 50.17137333448045 3.0493951907847077 1.7968523183371872 5.2325172869022936 1.5092460042797029 14.319358923472464 4.0172338362317532 53.341709486674517 41.671667310874909 31.457019802648574 1.3331096665933726 13.477686065481976 0.93976782029494643 0.83675665338523686 0.89818436279892921
leaf_count=10464 84053 829 22647 5036 31085 19221 4479 1229 84 10977 7034 4544 508 55 10823 4703 6180 1993 2973 774 922 13478 16871 427 45 15772 696 369 1731 313 3910 805 17136 14250 10757 216 3474 205 195 179
internal_value=0 0.00467206 0.00383433 0.0129302 -0.001431 0.00126319 0.00726508 0.0248142 0.0195913 0.00188407 -0.00924664 0.0211378 0.00678533 0.0692615 0.00415186 0.0143639 0.0179676 0.0233422 0.0314127 0.0171264 0.0115415 -0.0101884 -0.00513506 0.00146177 0.0335061 0.0050167 0.0346617 0.0374879 0.00397943 0.0417313 0.0171885 0.0567574 0.000574511 -0.00699478 -0.00299422 0.0652032 0.0248777 0.0442309 0.0349603 0.0453955
internal_weight=1019.72 677.239 668.864 246.577 422.286 329.972 192.446 44.3173 39.695 148.129 342.483 126.291 89.3592 8.3756 120.286 35.2569 103.869 54.9219 31.1602 13.8542 48.9466 323.094 93.245 44.7575 3.51205 85.088 6.43602 4.27121 18.7737 17.306 32.9575 4.43813 87.0299 137.526 73.1287 1.60903 18.6382 5.16049 22.4228 15.7968
internal_count=338598 214352 213468 71273 142195 108596 60232 11785 10948 48447 124246 33424 27626 884 37849 10059 28193 14284 7317 3723 13909 118152 32444 14626 788 26749 1470 877 6210 3594 9000 889 27959 48364 25007 261 4804 1127 5231 3152
is_linear=0
shrinkage=0.0134208


Tree=7
num_leaves=41
num_cat=0
split_feature=5 10 8 1 8 16 12 6 1 11 6 8 6 15 8 11 1 8 9 9 16 11 15 1 6 11 6 8 6 9 5 11 1 6 12 5 6 6 6 1
split_gain=239.222 178.639 172.284 90.5546 62.1789 88.3265 92.7564 37.7602 31.9836 28.0356 26.459 22.409 20.9525 18.7018 18.5169 17.0686 15.9252 22.9381 20.3997 15.2934 15.7763 22.6029 18.8072 15.1292 14.7971 14.07 12.8555 12.7043 12.3846 11.9527 11.4517 11.3398 12.4636 10.7985 10.6462 10.3103 10.0777 10.0115 9.99371 9.87944
threshold=0.33333331296296426 0.29166666666666669 11.500000000000002 5.5000000000000009 14.500000000000002 1.0000000180025095e-35 0.77500000000000013 118.10833333333333 10.500000000000002 inf 70.408333333333346 9.5000000000000018 104.13333333333334 1.0000000180025095e-35 15.500000000000002 1.0000000180025095e-35 3.5000000000000004 12.500000000000002 2.598214285714286 0.52272727272727282 0.41666666666666669 1.0000000180025095e-35 0.87500000000000011 7.5000000000000009 17.408333333333335 inf 65.941666666666677 13.500000000000002 13.925000000000002 1.7750000000000001 0.27272725413223281 1.0000000180025095e-35 7.5000000000000009 56.225000000000001 0.77500000000000013 0.26666665333333411 33.925000000000004 12.308333333333335 13.525 6.5000000000000009
decision_type=2 2 2 2 2 2 2 2 2 8 2 2 2 2 2 8 2 2 2 2 2 8 2 2 2 8 2 2 2 2 2 8 2 2 2 2 2 2 2 2
left_child=1 2 3 13 5 6 9 8 15 -4 16 36 23 -1 37 26 -2 18 -18 -13 21 -21 24 -11 -23 -20 -8 -14 -10 33 -15 -7 -33 -24 -22 -36 -5 -3 -27 -26
right_child=10 14 4 11 -6 31 7 -9 28 12 -12 19 27 30 -16 -17 17 -19 25 20 34 22 29 -25 39 38 -28 -29 -30 -31 -32 32 -34 -35 35 -37 -38 -39 -40 -41
leaf_value=0.01261395359898345 -0.012122082052260195 0 -0.0051926283510214119 0.035243383655813747 -0.011231869118967197 -0.011197161094976017 -0.0032730912132885029 0.061109860254512309 0 -0.0014045491586519045 0.0053500435348558997 0.035001323052357119 0.055370707159478727 0.0068437805544465675 0 0.023250211766026981 -0.00078746566916791379 -0.011587066810547381 0 0.0091518346294984804 0 0 0.045693813249824126 0.0096659088567883546 0 0 0.021244647509032558 0 0.052804019700193584 0 -0.0030744440407376988 -0.0079379862679232038 0.0029590132769548535 0 0.017447421041032179 -0.0011574096553713165 0 0.073430977498274139 0.075205130209705096 0.040429348324030376
leaf_weight=33.632483990862966 227.38280345778912 0.51987637672573228 58.499357830733061 22.277128699701283 91.39767335401848 63.762943673878908 12.766243702033536 4.8845511320978403 0.57057411316782314 34.87037505209446 19.481740206247196 9.9150066545698774 2.6005671548191467 33.893340548034757 0.51998593239113688 15.823862950084729 41.216571490745991 47.990644695237279 1.9030179511755727 22.012543154181913 15.898169977357609 7.4152449567336616 13.922157106688248 50.605181748978794 1.642667573643849 0.2759234760887922 5.1048755287192762 1.7968523108866066 6.0878725075162947 1.5092460110317916 53.196206704247743 41.378366560675204 31.540130167268217 0.59731950098648667 23.402893120422963 4.5221306141465902 0.83675665338523686 7.8094548396766186 1.4278266818728296 4.5313126051332802
leaf_count=10545 83904 44 19101 5042 30820 22562 4236 1272 117 10912 7126 2653 519 10881 52 4502 13449 16776 416 5708 4567 1992 2672 15837 372 42 1694 358 1244 304 17078 14190 10817 115 6461 1248 189 658 219 1027
internal_value=0 0.00459435 0.00377354 0.0126284 -0.0014135 0.00124483 0.00712569 0.0239864 0.0190132 0.00185452 -0.00919837 0.020509 0.00665692 0.00408085 0.0646361 0.0128973 -0.010144 -0.00508938 0.00143572 0.0174876 0.0154657 0.0207906 0.0287874 0.00492323 0.0147634 0.0322067 0.00264753 0.0359551 0.0470565 0.0394697 0.000563304 -0.00694386 -0.00295921 0.0432212 0.00875044 0.0137416 0.0334455 0.0695634 0.0606904 0.0301898
internal_weight=1019.42 679.743 670.894 249.205 421.689 330.292 193.61 45.238 40.3534 148.372 339.679 128.483 89.873 120.722 8.84932 33.695 320.197 92.814 44.8233 105.369 95.4537 51.6305 29.6179 85.4756 13.5892 3.60677 17.8711 4.39742 6.65845 16.0287 87.0895 136.681 72.9185 14.5195 43.8232 27.925 23.1139 8.32933 1.70375 6.17398
internal_count=338598 214352 213468 71273 142195 108596 60232 11785 10948 48447 124246 33424 27626 37849 884 9587 118152 32444 14626 28193 25978 13388 6880 26749 3651 788 5930 877 1361 3229 27959 48364 25007 2787 12590 7709 5231 702 261 1399
is_linear=0
shrinkage=0.0134208


Tree=8
num_leaves=41
num_cat=0
split_feature=5 10 8 1 8 17 12 6 1 11 6 11 6 15 17 8 11 1 8 9 1 6 8 6 11 6 6 11 1 8 5 9 15 9 12 6 8 6 8 16
split_gain=233.892 164.18 165.69 85.4424 61.1449 85.9092 87.8559 33.2571 28.7628 27.2252 26.0987 21.0512 19.6595 17.9234 17.89 16.5893 16.0299 15.8868 22.6293 19.3826 14.5741 14.0599 22.756 18.1881 12.3756 12.2947 11.2953 11.2512 12.2261 11.1741 11.104 11.0588 10.2823 13.4453 11.4744 10.1286 9.65986 9.61062 9.608 9.44475
threshold=0.33333331296296426 0.29166666666666669 11.500000000000002 5.5000000000000009 14.500000000000002 0.83333333333333337 0.77500000000000013 118.10833333333333 10.500000000000002 inf 70.408333333333346 1.0000000180025095e-35 104.13333333333334 1.0000000180025095e-35 0.58333333333333337 15.500000000000002 1.0000000180025095e-35 3.5000000000000004 12.500000000000002 2.598214285714286 7.5000000000000009 20.291666666666668 9.5000000000000018 26.775000000000002 inf 65.941666666666677 13.925000000000002 1.0000000180025095e-35 7.5000000000000009 13.500000000000002 0.27272725413223281 1.1394230769230773 0.87500000000000011 1.7750000000000001 1.0000000180025095e-35 27.991666666666671 9.5000000000000018 40.141666666666673 9.5000000000000018 1.0000000180025095e-35
decision_type=2 2 2 2 2 2 2 2 2 8 2 8 2 2 2 2 8 2 2 2 2 2 2 2 8 2 2 8 2 2 2 2 2 2 2 2 2 2 2 2
left_child=1 2 3 13 5 27 9 8 16 -7 17 35 20 39 21 -3 25 -2 19 -19 -11 -13 23 31 -21 -8 -10 -4 -29 -14 36 -23 -16 34 -34 38 -15 -32 -5 -1
right_child=10 15 4 11 -6 6 7 -9 26 12 -12 14 29 30 32 -17 -18 18 -20 24 -22 22 -24 -25 -26 -27 -28 28 -30 -31 37 -33 33 -35 -36 -37 -38 -39 -40 -41
leaf_value=0.025920866224304572 -0.012089860779144415 0.065101408811057637 -0.011157525259793726 0.019122559756702674 -0.011192790619051202 -0.0051468891884116231 -0.0032376889395123501 0.057274417171529771 0 -0.0013872649913676688 0.0052534574646227409 -0.0018698804859141364 0.052143757096760585 0.01877937941127664 0.021989625761823495 0 0.022489171965625398 -0.00077744802710719716 -0.011550483327840123 0 0.0094558176514468618 0.091989076046601684 0.014549000033756873 0 0.05675962614148887 0.020575862053013028 0.049819577248325954 -0.0078870232316572784 0.0029116790257474978 0 -0.0064883331246961837 0 0.045762333683257696 0 0 0.020576976681443024 0.0015278025055831684 0.0064172410022167526 0.0026777002030608688 0.0072464462409619085
leaf_weight=8.1807707089465094 224.94592885347083 8.778613346628843 63.136081278324127 10.615972210187463 90.492055748822168 58.231606137240306 12.729031155584382 5.1398896924220026 0.57057411177083928 34.824753748020157 19.573025639634579 4.7478823787532773 2.7235716120339939 9.1233472684398276 19.341072203824297 0.51998592866584659 16.137615374987945 41.188038556138054 47.49981614202261 1.9030179230030648 51.032330496003851 1.7079807338304864 21.565814826171845 0.46077358513139188 1.7955405444372434 5.1994099100120366 6.3640152588486671 41.088729031151161 31.622089937562123 1.7968523332383484 40.382587025873363 0.2002248247154057 17.883877251297243 1.6196484952233732 1.7438581786118446 25.134350628359243 24.971950490027666 12.670049135340376 25.661578117869794 25.822742071002722
leaf_count=2379 83754 835 22478 3086 30558 18984 4210 1313 112 10850 7218 1259 528 2688 4180 49 4542 13421 16681 405 15899 225 5571 74 383 1720 1249 14131 10876 349 13636 26 3220 306 314 6976 7357 4278 7458 7511
internal_value=0 0.00451721 0.00371264 0.012332 -0.00139625 0.00122676 0.00699027 0.023205 0.018462 0.00182566 -0.00915014 0.0198974 0.0065323 0.00401155 0.0253106 0.0606617 0.0125841 -0.0100995 -0.00504395 0.00141026 0.00483233 0.0157723 0.0200805 0.0622672 0.0310054 0.00258906 0.0445465 -0.00689332 -0.0029245 0.0345391 0.000552233 0.0808098 0.0315743 0.0393882 0.0424598 0.0134764 0.00671163 -0.00304145 0.00802343 0.0123084
internal_weight=1019.13 682.222 672.923 251.834 421.089 330.597 194.75 46.1405 41.0006 148.609 336.905 130.683 90.3775 121.151 69.2711 9.2986 34.0661 317.332 92.3864 44.8866 85.8571 28.6827 23.9348 2.36898 3.69856 17.9284 6.93459 135.847 72.7108 4.52042 87.1479 1.90821 40.5885 21.2474 19.6277 61.4119 34.0953 53.0526 36.2776 34.0035
internal_count=338598 214352 213468 71273 142195 108596 60232 11785 10948 48447 124246 33424 27626 37849 16380 884 9587 118152 32444 14626 26749 7608 6183 383 788 5930 1361 48364 25007 877 27959 251 8772 4010 3534 17044 10045 17914 10544 9890
is_linear=0
shrinkage=0.0134208


Tree=9
num_leaves=41
num_cat=0
split_feature=5 10 8 1 8 16 12 6 11 1 6 11 6 15 16 1 8 9 11 8 1 6 8 6 6 11 1 11 5 1 8 9 9 15 12 6 6 8 12 8
split_gain=228.747 151.336 159.559 80.656 60.1277 83.5661 83.2989 29.4392 26.44 25.9677 25.7436 19.3257 18.48 17.1934 16.2516 15.8489 22.3282 18.478 15.236 14.9554 14.044 13.3867 19.8593 15.942 12.1081 11.1631 11.9928 10.9883 10.7799 10.0532 9.86434 9.49884 9.48591 10.6934 10.0508 9.39197 9.37647 9.37267 13.1851 9.14541
threshold=0.33333331296296426 0.29166666666666669 11.500000000000002 5.5000000000000009 14.500000000000002 1.0000000180025095e-35 0.77500000000000013 118.10833333333333 inf 11.500000000000002 70.408333333333346 1.0000000180025095e-35 104.13333333333334 1.0000000180025095e-35 0.41666666666666669 3.5000000000000004 12.500000000000002 2.598214285714286 1.0000000180025095e-35 15.500000000000002 7.5000000000000009 20.291666666666668 9.5000000000000018 26.775000000000002 65.941666666666677 1.0000000180025095e-35 7.5000000000000009 inf 0.27272725413223281 16.500000000000004 13.500000000000002 1.1394230769230773 1.7750000000000001 0.87500000000000011 1.0000000180025095e-35 40.141666666666673 27.991666666666671 13.500000000000002 0.29166666666666669 9.5000000000000018
decision_type=2 2 2 2 2 2 2 2 8 2 2 8 2 2 2 2 2 2 8 2 2 2 2 2 2 8 2 8 2 2 2 2 2 2 2 2 2 2 2 2
left_child=1 2 3 13 5 6 8 9 -4 18 15 36 20 -1 32 -2 17 -17 24 -3 -10 -16 23 31 -8 -7 -27 -19 39 -11 -14 -23 33 -13 -35 -30 -5 -22 -39 -15
right_child=10 19 4 11 -6 25 7 -9 12 29 -12 14 30 28 21 16 -18 27 -20 -21 37 22 -24 -25 -26 26 -28 -29 35 -31 -32 -33 -34 34 -36 -37 -38 38 -40 -41
leaf_value=0.012025763482098304 -0.012057531563963978 0.061130244111367589 -0.0051014677829076044 0.0078712637578220498 -0.011153580074176593 -0.011118274577104067 -0.0018874932731304025 0.053881018706731294 -0.0013699345696042901 0.054084864275093292 0.0051590700144859411 0.02217694625392384 0.04925974944818521 0.018227807371161038 -0.0018477461445813898 -0.00076753673260501342 -0.011513815634827075 0 0.022547861954862185 0 0.01373068188252707 0.083971818434296824 0.014174069033146146 0 0.020771824188157921 -0.0078361014110114348 0.0028652331105889759 0.053421636247103547 -0.0064381620562483418 0 0 0 0.0027511859830262031 0.043466712213359016 0 0.0062953553809274839 0.019942723829715705 -0.0031352757981645231 0.026697769582447246 0.001505283208947606
leaf_weight=34.352843812434003 222.53757770895027 9.220286508323623 57.965686472831294 36.512627552263439 89.597595628583804 62.511427769903094 13.506970308953898 5.3885086779482663 34.786024904809892 4.5978720965795228 19.663014713209122 17.761050946544856 2.8434890613425532 9.2722791847772879 4.7402430390939143 41.159873123047873 47.014856981113553 1.9030180191621207 17.541195223340765 0.51998593239113688 32.264386320719495 1.8449436600785754 21.83731733309105 0.46077358513139188 5.5447507807984948 40.802703412482515 31.702908238163218 1.8815201860852528 40.152636811835691 0.44388762908056378 1.7968523071613163 0.20022482937201858 3.5655710699502379 18.570863473694775 1.7438581895548848 12.741532159503548 25.582569208228961 16.064911074936393 3.1240248656831682 25.005142085254192
leaf_count=10699 83604 837 18867 10022 30299 22392 4403 1350 10790 811 7311 3616 537 2717 1240 13394 16587 396 4822 47 9380 226 5547 70 1807 14073 10934 392 13599 78 340 25 751 3231 303 4315 7022 4869 947 7328
internal_value=0 0.0044439 0.00365515 0.0120539 -0.00137914 0.00120911 0.00685841 0.0224672 0.00179727 0.0179367 -0.00910178 0.0193218 0.00641043 0.0039513 0.0244614 -0.0100549 -0.00499827 0.00138685 0.0132593 0.0571039 0.0047431 0.015338 0.0194794 0.0579891 0.00369144 -0.00684297 -0.00289007 0.0299309 0.000547292 0.0480466 0.0332268 0.0743261 0.0303687 0.0324467 0.0404729 -0.00300496 0.0131562 0.00925205 0.000713154 0.00659341
internal_weight=1018.73 684.568 674.828 254.344 420.483 330.886 195.869 47.0232 148.845 41.6347 334.16 132.82 90.8797 121.524 70.7248 314.497 91.9593 44.9444 36.5929 9.74027 86.2393 29.0835 24.3433 2.50594 19.0517 135.017 72.5056 3.78454 87.1716 5.04176 4.64034 2.04517 41.6413 38.0758 20.3147 52.8942 62.0952 51.4533 19.1889 34.2774
internal_count=338598 214352 213468 71273 142195 108596 60232 11785 48447 10948 124246 33424 27626 37849 16380 118152 32444 14626 10059 884 26749 7608 6183 383 6210 48364 25007 788 27959 889 877 251 8772 7751 3534 17914 17044 14958 5816 10045
is_linear=0
shrinkage=0.0134208


Tree=10
num_leaves=41
num_cat=0
split_feature=5 8 11 1 8 16 12 5 11 11 6 11 6 17 15 6 1 8 9 1 6 8 6 16 14 15 9 8 1 11 5 11 9 8 12 8 6 8 8 2
split_gain=223.714 143.317 112.628 75.8257 59.1337 81.3057 79.0593 26.7286 35.3513 25.6726 25.3939 21.0733 18.618 18.1581 17.8533 17.4004 15.8096 22.0303 17.6366 13.536 12.7601 17.4321 14.1264 12.4559 12.264 12.9308 12.1184 11.4983 11.0914 10.4409 10.3038 9.79344 9.55615 8.92234 12.559 8.73549 8.72941 9.0122 8.30139 9.70746
threshold=0.33333331296296426 11.500000000000002 0.5277777777777779 5.5000000000000009 14.500000000000002 1.0000000180025095e-35 0.77500000000000013 0.11764705363321822 1.0000000180025095e-35 0.79166666666666674 70.408333333333346 1.8333333333333333 65.941666666666677 0.58333333333333337 1.0000000180025095e-35 104.13333333333334 3.5000000000000004 12.500000000000002 2.598214285714286 7.5000000000000009 20.291666666666668 9.5000000000000018 26.775000000000002 1.0000000180025095e-35 0.87500000000000011 0.87500000000000011 2.3250000000000006 15.500000000000002 7.5000000000000009 1.0000000180025095e-35 0.2499999739583362 inf 1.7750000000000001 13.500000000000002 0.29166666666666669 13.500000000000002 27.991666666666671 9.5000000000000018 10.500000000000002 0.0078796595988972016
decision_type=2 2 10 2 2 2 2 2 8 8 2 8 2 2 2 2 2 2 2 2 2 2 2 2 2 2 2 2 2 8 2 8 2 2 2 2 2 2 2 2
left_child=1 3 4 14 5 6 9 -8 12 -3 16 36 -9 20 23 19 -2 18 38 -11 -13 22 -22 -1 25 -14 -10 -4 -7 -30 -16 -20 -15 -21 -35 -17 37 -5 39 -18
right_child=10 2 27 11 -6 28 7 8 26 15 -12 13 24 32 30 35 17 -19 31 33 21 -23 -24 -25 -26 -27 -28 -29 29 -31 -32 -33 -34 34 -36 -37 -38 -39 -40 -41
leaf_value=0.02709222963579529 -0.012025139366337404 -0.0050547455502484746 0.052696787175643314 0.018306615789558684 -0.011114461203340718 -0.010071452564562407 0.048236607994214489 -0.0047619775532328195 0.032325441754373026 -0.0013536552122703613 0.0050668162730694317 -0.0018258431412490688 0 0.032379649164819189 0.0067841413501070376 0.046665978043330537 0.01302281886582882 -0.011477037795012444 0 0.013385101696938463 0.068819827606080589 0.013813657723081282 0 0.0068695994542637877 0.0079744694617847559 0.078003100261524627 0 0 -0.0087718694904903166 0.0028196438387530342 -0.0025297747590012874 0.050443757972509926 0.0027077806365984765 -0.0031017710104494921 0.025732655835211424 0 0.019339664900327038 0.0025080217941749338 -0.0062271529241768164 -0.007626439042485101
leaf_weight=8.8992498668376339 220.15846959059127 57.702319567091763 7.7893027309328309 10.871013523777945 88.720009989570826 79.110044356901199 6.7253842726349822 13.352347391191872 19.288920663762841 34.741220809984952 19.751726031536236 4.7327134970109936 0.36553002614528107 40.072683792794123 34.584777534240857 2.9604278376791635 12.047777556581424 46.535731591284275 1.9030180806294106 32.650690203998238 2.1775156816002021 22.104519702959806 0.46077358513139188 26.258875575149432 5.744501736247912 1.229353092610836 1.1796632369514555 0.517291194293648 23.307381183141842 31.782603591680527 53.0213010055013 1.965259103802963 3.5740494048222899 16.021180912153799 3.1971853990107775 1.7968523332383484 26.023209383012727 25.904248387087137 24.116503453115001 4.9678125127684325
leaf_count=2507 83454 18751 773 3118 30045 28510 1655 4234 3846 10730 7404 1222 35 8080 11043 546 3820 16494 388 9416 316 5524 67 7399 1437 116 235 51 7994 10900 16930 400 721 4848 968 331 7064 7429 8113 1575
internal_value=0 0.00437187 -0.000349257 0.0122612 -0.00136225 0.00119203 0.00673089 0.0217707 0.0169762 0.00176982 -0.00905342 0.0192105 0.00352135 0.024422 0.00440956 0.00629161 -0.0100103 -0.00495285 0.0013639 0.0046557 0.0149231 0.0189089 0.054264 0.0125388 0.0212277 0.05683 0.0296323 0.0485252 -0.00679275 -0.0017332 0.000926239 0.0289266 0.0303933 0.00905378 0.000688203 0.0320068 0.0128341 0.00770441 -0.00075775 0.00585683
internal_weight=1018.31 686.867 428.182 258.685 419.876 331.156 196.956 47.8857 41.1603 149.07 331.446 135.921 20.6917 73.1223 122.764 91.3676 311.695 91.5361 45.0004 86.6103 29.4755 24.7428 2.63829 35.1581 7.33938 1.59488 20.4686 8.30659 134.2 55.09 87.6061 3.86828 43.6467 51.8691 19.2184 4.75728 62.7985 36.7753 41.1321 17.0156
internal_count=338598 214352 143017 71335 142193 108592 60228 11785 10643 48443 124246 33456 6562 16409 37879 27626 118152 32444 14626 26749 7608 6183 383 9906 1836 151 4081 824 48364 18894 27973 788 8801 14958 5816 877 17047 10547 13838 5395
is_linear=0
shrinkage=0.0134208


Tree=11
num_leaves=41
num_cat=0
split_feature=5 8 10 1 8 16 12 6 6 11 1 11 15 16 6 1 8 9 1 11 6 8 6 17 11 1 6 8 5 6 11 9 8 12 9 6 6 8 8 2
split_gain=218.773 137.771 105.788 71.6551 58.1338 79.0869 75.0621 25.0499 24.9716 24.9425 22.1999 19.3863 17.1324 16.5068 16.4094 15.768 21.7344 16.8525 13.0496 12.9377 12.1793 15.4254 12.6607 11.541 11.0462 11.495 10.8239 10.6357 9.98545 9.46552 8.75732 8.55158 8.49781 11.9737 8.35774 8.31219 8.54701 8.18954 8.07145 9.36963
threshold=0.33333331296296426 11.500000000000002 0.29166666666666669 5.5000000000000009 14.500000000000002 1.0000000180025095e-35 0.77500000000000013 70.408333333333346 118.10833333333333 inf 10.500000000000002 1.8333333333333333 1.0000000180025095e-35 0.41666666666666669 104.13333333333334 3.5000000000000004 12.500000000000002 2.598214285714286 7.5000000000000009 1.0000000180025095e-35 20.291666666666668 9.5000000000000018 26.775000000000002 0.83333333333333337 1.0000000180025095e-35 7.5000000000000009 65.941666666666677 15.500000000000002 0.26666665333333411 13.925000000000002 inf 1.7750000000000001 13.500000000000002 0.29166666666666669 0.52272727272727282 40.141666666666673 44.041666666666671 11.500000000000002 10.500000000000002 0.0078796595988972016
decision_type=2 2 2 2 2 2 2 2 2 8 2 8 2 2 2 2 2 2 2 8 2 2 2 2 8 2 2 2 2 2 8 2 2 2 2 2 2 2 2 2
left_child=1 3 4 12 5 6 9 15 10 -3 19 34 23 31 18 -2 17 38 -11 26 -15 22 -22 -1 -7 -26 -8 -4 -14 -12 -19 -13 -20 -34 -5 -30 -37 -9 39 -17
right_child=7 2 27 11 -6 24 8 37 -10 14 29 13 28 20 -16 16 -18 30 32 -21 21 -23 -24 -25 25 -27 -28 -29 35 -31 -32 -33 33 -35 -36 36 -38 -39 -40 -41
leaf_value=0.0067367342373033145 -0.011992769207006102 -0.0050106742982410453 0.050039833243043216 0.029630252369919868 -0.0110748173873731 -0.011044347193668607 -0.0031493034507037933 0.017252646351501175 0.049171278444900754 -0.001336996558084558 0 0.031097661688763094 0.0066536769586727218 -0.0018042278049135599 0.030869519630506263 0.012702010277716573 -0.01144017071583321 0 0.013052369509227918 0.020123892258560819 0.064168093492339692 0.013466945176674211 0 0.026110785502184181 -0.0077193503969982284 0.0027748877701285874 0.018783925812377297 0 -0.0057640678748752767 0.043229031420017022 0.047769855604096668 0.0026651620599469788 -0.0030684295525069093 0.024825455483277175 0.010434438849979058 0.027082074379764835 0 0 -0.0061776484935449271 -0.00757553497528535
leaf_weight=26.416874721646309 217.80631033354439 57.449134485330433 8.0915916087105852 5.9427483659237614 87.840577283641323 61.372163575841114 12.634710244368764 6.6064708060584989 5.7738070175983012 34.700935539556667 0.59862177493050772 41.157135043526068 34.78839456429705 4.7252671543974456 4.871338308788836 12.185345814330505 46.062346774153411 1.9030180363915883 33.031024684198201 17.192751594586298 2.3031311782542656 22.367499138694257 0.46077358513139188 9.1082738451659679 40.159587355563417 31.861203221371397 5.4673160726670176 0.51995951938442886 40.119839324383065 7.0683929626829922 2.0468369235750279 3.5824103504419327 15.978054353501649 3.2690453180111945 57.516422010259703 2.7742146519012758 10.009423495037479 13.232708579860628 23.984380900161341 4.9342998533975333
leaf_count=7366 83303 18642 772 1596 29791 22252 4139 2029 1396 10672 106 8096 11097 1204 1465 3840 16402 380 9451 4670 319 5503 64 2540 13944 11063 1791 50 13594 1255 408 705 4828 988 15451 868 3133 4065 8075 1555
internal_value=0 0.00430038 -0.000344797 0.0119818 -0.00134605 0.00117404 0.00660425 -0.00900519 0.0211035 0.00174167 0.0168809 0.0186655 0.00433606 0.0236196 0.00617572 -0.00996575 -0.00490793 0.001341 0.00457023 0.0115851 0.0145291 0.0183702 0.0510493 0.0122488 -0.00674256 -0.00280812 0.0024061 0.0461556 0.000909831 0.0387359 0.0279853 0.0292535 0.00886147 0.000663794 0.012537 -0.00250142 0.00622417 0.00497663 -0.000748556 0.00572713
internal_weight=1017.91 689.153 427.88 261.272 419.269 331.428 198.035 328.762 48.7356 149.3 42.9618 138.055 123.217 74.5962 91.8504 308.923 91.1162 45.0539 86.9791 35.2948 29.8567 25.1314 2.7639 35.5251 133.393 72.0208 18.102 8.61155 87.6919 7.66701 3.94985 44.7395 52.2781 19.2471 63.4592 52.9035 12.7836 19.8392 41.104 17.1196
internal_count=338598 214352 143017 71335 142195 108596 60232 124246 11785 48447 10948 33456 37879 16409 27626 118152 32444 14626 26749 9587 7608 6183 383 9906 48364 25007 5930 822 27973 1361 788 8801 14958 5816 17047 17926 4001 6094 13838 5395
is_linear=0
shrinkage=0.0134208


Tree=12
num_leaves=41
num_cat=0
split_feature=5 8 11 1 8 16 12 6 11 6 1 11 15 1 8 9 6 16 1 11 6 8 6 11 1 17 6 8 5 6 6 9 8 12 6 8 16 6 11 8
split_gain=213.968 132.493 99.5909 67.6991 57.1664 76.9508 71.372 24.6823 24.2118 22.3658 20.197 17.8963 16.4346 15.724 21.4416 16.12 15.3872 15.0335 12.5854 12.2055 11.6362 13.7055 11.4327 10.9562 11.2744 10.7076 10.3781 9.77456 9.66718 8.77717 8.1207 8.11199 8.09756 11.4254 8.06936 8.01515 7.86713 10.4486 7.85338 7.8484
threshold=0.33333331296296426 11.500000000000002 0.5277777777777779 5.5000000000000009 14.500000000000002 1.0000000180025095e-35 0.77500000000000013 70.408333333333346 inf 118.10833333333333 10.500000000000002 1.8333333333333333 1.0000000180025095e-35 3.5000000000000004 12.500000000000002 2.598214285714286 104.13333333333334 0.41666666666666669 7.5000000000000009 1.0000000180025095e-35 20.291666666666668 9.5000000000000018 26.775000000000002 1.0000000180025095e-35 7.5000000000000009 0.83333333333333337 65.941666666666677 15.500000000000002 0.27272725413223281 13.925000000000002 40.141666666666673 1.0454545454545456 13.500000000000002 0.29166666666666669 44.041666666666671 9.5000000000000018 1.0000000180025095e-35 14.075000000000001 inf 10.500000000000002
decision_type=2 2 10 2 2 2 2 2 8 2 2 8 2 2 2 2 2 2 2 8 2 2 2 8 2 2 2 2 2 2 2 2 2 2 2 2 2 2 8 2
left_child=1 3 4 12 5 6 8 13 -3 10 19 31 25 -2 15 39 18 -13 -10 26 -19 22 -22 -7 -25 -1 -8 -4 35 -12 -30 -5 -20 -34 -32 36 37 -14 -17 -15
right_child=7 2 27 11 -6 23 9 -9 16 -11 29 17 28 14 -16 38 -18 20 32 -21 21 -23 -24 24 -26 -27 -28 -29 30 -31 34 -33 33 -35 -36 -37 -38 -39 -40 -41
leaf_value=0.0066071455122684386 -0.011960153336852094 -0.0049648248958903841 0.047597135327192126 0.01657756961264395 -0.011035521838072979 -0.011004517064221684 -0.0031153143731473924 0.0048744189483357746 -0.0013210018684839603 0.046626240661374475 0 0.028187236679925804 0 0.0056008414624678033 -0.011403189398894436 0 0.029690888374321479 -0.0017827964753013659 0.012731879611845352 0.019522787503908953 0.060104096103775741 0.013133188368855585 0 -0.0076684689785449364 0.002730958057954706 0.025190655635839849 0.018235723056998731 0 -0.0057158400515635102 0.041167924153591551 0.026090147944475481 0.0054529033327600888 -0.0030353460661823239 0.023971085724412401 0 0.0017274883111372051 0 0.038192220958788103 0.045354952702853793 -0.0061282993086735748
leaf_weight=26.570674537681043 215.48403215990402 57.185304383281618 8.390145172365008 37.40065331873484 86.984267760999501 60.771640566643327 12.600717154098676 19.938996414421126 34.662237026495859 6.0056118892971426 0.59862179006449956 45.810230600647628 2.3462353704962879 17.222003869712353 45.594668529927731 1.9030179970432091 4.9958760594017804 4.7179284691810635 33.405434617772698 17.482270943000913 2.4249917280394624 22.626334025524557 0.46077358513139188 39.885208970401436 31.938715898897499 9.3128438591957092 5.555484157986939 0.51729119336232543 39.916728616226465 7.3208935477305204 2.840579131618143 26.727220376953483 15.935536067700015 3.339633203111589 10.009423495037479 25.461181476712227 2.9606142675038427 4.2210605866275728 2.1263273488730183 23.853925099829212
leaf_count=7335 83152 18527 776 9942 29543 22166 4116 7596 10615 1428 103 9886 564 5802 16310 372 1495 1187 9485 4703 322 5484 61 13887 11120 2571 1814 48 13561 1258 884 7105 4808 1008 3117 7311 749 1015 416 8036
internal_value=0 0.00423064 -0.000340262 0.0117124 -0.00132992 0.00115704 0.00648217 -0.00895714 0.00171394 0.0204766 0.0164269 0.0181416 0.00426726 -0.00992107 -0.00486327 0.00131856 0.00605967 0.0228618 0.00448643 0.011318 0.0141516 0.0178569 0.0481882 -0.00669251 -0.00277461 0.0119694 0.00235188 0.044003 0.000897307 0.0369739 -0.00246857 0.0122428 0.0086749 0.000639832 0.00611262 0.00652644 0.0173195 0.0255139 0.0271013 -0.000739469
internal_weight=1017.51 691.382 427.575 263.807 418.667 331.683 199.088 326.123 149.524 49.5636 43.558 140.168 123.639 306.184 90.6999 45.1053 92.3387 76.0403 87.3428 35.6385 30.23 25.5121 2.88577 132.596 71.8239 35.8835 18.1562 8.90744 87.7558 7.91952 52.7667 64.1279 52.6806 19.2752 12.85 34.9891 9.52791 6.5673 4.02935 41.0759
internal_count=338598 214352 143017 71335 142193 108592 60228 124246 48443 11785 10948 33456 37879 118152 32444 14626 27626 16409 26749 9587 7608 6183 383 48364 25007 9906 5930 824 27973 1361 17926 17047 14958 5816 4001 10047 2412 1579 788 13838
is_linear=0
shrinkage=0.0134208


Tree=13
num_leaves=41
num_cat=0
split_feature=5 8 10 1 8 16 12 6 11 5 11 11 6 15 1 8 9 6 17 1 6 8 11 1 9 14 15 6 17 5 8 6 8 8 12 8 2 5 15 6
split_gain=209.247 127.464 93.9573 63.9429 56.1985 74.8685 67.9372 24.3479 23.5168 20.6178 29.6917 16.5135 16.1465 15.759 15.6875 21.1685 15.428 14.4472 13.6736 12.1398 11.1274 12.2212 10.8663 11.058 10.7301 10.4898 11.0678 10.392 9.94478 9.38157 9.11983 7.93402 7.79148 7.71997 10.9111 7.65323 8.98682 9.04483 15.2865 7.62651
threshold=0.33333331296296426 11.500000000000002 0.29166666666666669 5.5000000000000009 14.500000000000002 1.0000000180025095e-35 0.77500000000000013 70.408333333333346 inf 0.11764705363321822 1.0000000180025095e-35 1.8333333333333333 65.941666666666677 1.0000000180025095e-35 3.5000000000000004 12.500000000000002 2.598214285714286 104.13333333333334 0.58333333333333337 7.5000000000000009 20.291666666666668 9.5000000000000018 1.0000000180025095e-35 7.5000000000000009 2.3250000000000006 0.87500000000000011 0.87500000000000011 26.775000000000002 0.83333333333333337 0.24999998177083468 15.500000000000002 40.141666666666673 11.500000000000002 13.500000000000002 0.29166666666666669 10.500000000000002 0.0078796595988972016 0.42857138265306671 0.87500000000000011 44.041666666666671
decision_type=2 2 2 2 2 2 2 2 8 2 8 8 2 2 2 2 2 2 2 2 2 2 8 2 2 2 2 2 2 2 2 2 2 2 2 2 2 2 2 2
left_child=1 3 4 13 5 6 8 14 -3 -8 12 -5 -11 28 -2 16 35 19 20 -10 -13 27 -7 -24 -12 26 -14 -22 -1 -15 -4 -31 -9 -21 -35 36 37 -16 -39 -33
right_child=7 2 30 11 -6 22 9 32 17 10 24 18 25 29 15 -17 -18 -19 -20 33 21 -23 23 -25 -26 -27 -28 -29 -30 31 -32 39 -34 34 -36 -37 -38 38 -40 -41
leaf_value=0.0064811704445064625 -0.011927546473256187 -0.0049206475419499105 0.045418779499422753 0.011958817838185304 -0.010995631160631479 -0.010964728510972259 0.042181035582898596 0.016629985163761928 -0.0013050222711262951 -0.0047113744555657561 0.029108782921515624 -0.0017615812878923993 0 0.0064140328819215818 0 -0.011366104409137228 0.026269150568120857 0.028589295740456881 0.02717054721550427 0.012422966360373013 0.056521467476745427 0.01281168407423615 -0.0076176809310751535 0.0026878301902087441 0 0.006783257778214054 0.068756362031512405 0 0.02432429209306845 -0.0056677922705617879 0 0.025158592544759214 0 -0.0030026753118127031 0.023165054498636383 -0.0060791020111531421 -0.0075623065242506754 0 0.035275663238618145 0
leaf_weight=26.72353878011927 213.18908288679086 56.944542364217341 8.6736064029391837 64.786020427476615 86.125797084998339 60.177826897706836 7.4178443904966107 6.7347172251902547 34.620261446805671 13.285321366274731 20.652217757655311 4.7106906641274717 0.38425324647687542 35.167281084228307 4.6271318376529988 45.132642831653357 4.1068173351231962 5.117894969182089 46.879151641158387 33.774127166019753 2.543253549374644 22.881096518132836 39.614140524063259 32.015159138944 1.2214143951423466 6.0504884968977422 1.3594904765486717 0.46077358513139188 9.5137127302587032 39.716131190303713 0.51993351546116173 2.9057716333772996 13.289075128966942 15.893420810811223 3.4089765818789601 23.725133135216311 4.9256544844247401 2.7369860452599832 5.0167987341992557 10.009423494106157
leaf_count=7305 83005 18422 776 15236 29294 22081 1736 2050 10560 4136 3853 1171 33 11204 1326 16221 1331 1523 9929 9518 324 5465 13830 11177 228 1425 118 59 2601 13527 46 900 4044 4789 1027 8001 1535 740 1357 3101
internal_value=0 0.00416258 -0.000335744 0.0114525 -0.00131395 0.00113979 0.00636207 -0.00890849 0.00168539 0.0198822 0.0155808 0.0176373 0.00314875 0.00420298 -0.00987605 -0.00481677 0.00130299 0.00594688 0.022136 0.00440483 0.0137896 0.0173673 -0.00664266 -0.0027414 0.0266768 0.0190292 0.0504227 0.0456242 0.0116997 0.000888425 0.042042 -0.002436 0.0047885 0.0084938 0.000616216 -0.000724212 0.00549849 0.0122577 0.0212137 0.00600387
internal_weight=1017.04 693.554 427.257 266.297 418.063 331.937 200.13 323.484 149.759 50.371 42.9532 142.261 21.0796 124.036 303.46 90.2712 45.1385 92.8147 77.475 87.6968 30.5958 25.8851 131.807 71.6293 21.8736 7.79423 1.74374 3.00403 36.2373 87.7986 9.19354 52.6313 20.0238 53.0765 19.3024 41.0317 17.3066 12.3809 7.75378 12.9152
internal_count=338598 214352 143017 71335 142195 108596 60232 124246 48447 11785 10643 33456 6562 37879 118152 32444 14626 27626 16409 26749 7608 6183 48364 25007 4081 1836 151 383 9906 27973 822 17926 6094 14958 5816 13838 5395 3548 2097 4001
is_linear=0
shrinkage=0.0134208


Tree=14
num_leaves=41
num_cat=0
split_feature=5 8 11 1 8 16 12 6 11 6 1 1 8 11 15 9 6 17 1 11 1 6 8 11 6 6 17 5 8 8 1 6 8 9 9 8 8 2 5 15
split_gain=204.672 122.613 88.8054 60.4432 55.2561 72.8498 64.6629 23.9921 22.8357 19.2709 17.3982 15.6259 20.8506 15.2892 15.128 14.7005 13.5903 12.4551 11.1137 10.7758 10.8454 10.6502 10.9323 10.4974 9.79599 9.50082 9.24531 9.08391 8.96664 8.44749 7.8215 7.75204 7.57847 7.54686 7.51781 7.46169 7.41419 8.64105 8.56072 14.268
threshold=0.33333331296296426 11.500000000000002 0.5277777777777779 5.5000000000000009 14.500000000000002 1.0000000180025095e-35 0.77500000000000013 70.408333333333346 inf 118.10833333333333 11.500000000000002 3.5000000000000004 12.500000000000002 1.8333333333333333 1.0000000180025095e-35 2.598214285714286 100.84166666666667 0.58333333333333337 7.5000000000000009 1.0000000180025095e-35 7.5000000000000009 20.291666666666668 9.5000000000000018 1.0000000180025095e-35 65.941666666666677 26.775000000000002 0.83333333333333337 0.27272725413223281 13.500000000000002 15.500000000000002 16.500000000000004 40.141666666666673 9.5000000000000018 1.0454545454545456 1.7750000000000001 11.500000000000002 10.500000000000002 0.0078796595988972016 0.42857138265306671 0.87500000000000011
decision_type=2 2 10 2 2 2 2 2 8 2 2 2 2 8 2 2 2 2 2 8 2 2 2 8 2 2 2 2 2 2 2 2 2 2 2 2 2 2 2 2
left_child=1 3 4 14 5 6 8 11 -3 10 23 -2 15 33 26 36 18 21 -10 -7 -21 -15 25 24 -8 -23 -1 32 -18 -4 -12 -29 -16 -5 -19 -9 37 38 -13 -40
right_child=7 2 29 13 -6 19 9 35 16 -11 30 12 -14 17 27 -17 28 34 -20 20 -22 22 -24 -25 -26 -27 -28 31 -30 -31 -32 -33 -34 -35 -36 -37 -38 -39 39 -41
leaf_value=0.0063582768260319741 -0.011894786426543826 -0.0048752069057567187 0.043392174329738888 0.015801266050486894 -0.010956119351734836 -0.01092467918896217 -0.0018180131256728838 0.016170473941636111 -0.001205229672011492 0.042995102204956975 0.043264427113396266 0 -0.011328909178233933 -0.0017406190391246162 0.016663178584541419 0.025363011996521835 0.039763825466299613 0.027861435728236829 0.0081620639798062472 -0.007566933876143319 0.0026454857378519002 0.05333816473158403 0.012501788697383769 0.018759588761207008 0.017927150582366238 0 0.023507090927213838 -0.0056199545766037889 0 0 0 0.0058978211057412414 0.0016064698081257542 0.0051397800537823371 0.0017759270038280404 0 -0.0060300547147367775 -0.0075114594401392122 0 0.033748507143855438
leaf_weight=26.872946004616097 210.92210560501553 56.691384937148541 8.9543441548012179 38.320529863703996 85.290362217463553 59.591852066805586 13.433406332507731 6.8324678961653289 34.358728866092861 6.3675992453936487 5.4287347660865644 4.6271234457381096 44.676198778674006 4.7035440290346768 9.7210797802545112 4.1958372781518847 3.5709820894990125 44.161686514504254 53.240734827704728 39.346463171532378 32.090538861462846 2.6580566326156299 23.131858773063868 19.439489966724068 6.0052552034612745 0.46077358513139188 9.7109600231051445 39.518034521024674 2.1121933925896883 0.51729118963703513 0.49227136163972318 12.979240696411578 25.641369428485632 27.131187340477481 3.765486792428419 13.289075123379007 23.597948580980301 4.8926670954097062 2.7369875516742477 5.1723531438037753
leaf_count=7277 82843 18312 779 9981 29051 21996 4292 2069 10440 1467 815 1310 16123 1156 2762 1357 633 8110 16178 13773 11234 326 5448 5030 1918 57 2629 13494 375 45 74 4432 7285 7066 691 4025 7959 1514 726 1371
internal_value=0 0.00409474 -0.000331754 0.0111979 -0.00129867 0.00112279 0.00624521 -0.00886113 0.00165876 0.0193102 0.0155118 -0.00983188 -0.0047766 0.0171516 0.00413708 0.00126857 0.00583716 0.0214485 0.00426706 -0.00659289 -0.00270847 0.013442 0.0168996 0.0115209 0.00328639 0.0433123 0.0114393 0.000876258 0.0266332 0.0402418 0.0384481 -0.00240371 0.00629278 0.0116775 0.0262158 0.00468999 -0.000723876 0.00535004 0.0119132 0.0204916
internal_weight=1016.65 695.708 426.932 268.777 417.46 332.17 201.141 320.943 149.974 51.1668 44.7992 300.821 89.8991 144.333 124.444 45.2229 93.2826 78.8814 87.5995 131.029 71.437 30.9542 26.2507 38.8782 19.4387 3.11883 36.5839 87.8597 5.68318 9.47164 5.92101 52.4973 35.3624 65.4517 47.9272 20.1215 41.0271 17.4291 12.5365 7.90934
internal_count=338598 214352 143017 71335 142193 108592 60228 124246 48443 11785 10948 118152 32444 33456 37879 14626 27626 16409 26618 48364 25007 7608 6183 10059 6210 383 9906 27973 1008 824 889 17926 10047 17047 8801 6094 13838 5395 3548 2097
is_linear=0
shrinkage=0.0134208


Tree=15
num_leaves=41
num_cat=0
split_feature=5 8 1 11 7 6 8 5 17 12 11 6 11 17 6 17 1 8 11 9 8 5 12 12 15 6 6 14 9 8 8 11 4 8 4 16 12 6 9 8
split_gain=200.261 119.183 74.4468 62.8651 39.409 42.628 28.4715 37.5625 27.1589 36.0542 24.7512 23.6422 20.9532 17.5819 17.4862 16.1935 15.5629 20.5369 15.4518 14.0199 13.0925 11.8233 11.3353 11.278 10.9948 10.3515 9.90384 9.74362 9.66455 9.537 8.76848 7.68398 8.96694 13.1803 7.50438 7.45559 10.7151 7.24839 7.51762 7.1834
threshold=0.33333331296296426 12.500000000000002 6.5000000000000009 0.5277777777777779 1.0000000180025095e-35 118.10833333333333 10.500000000000002 0.2952069575400732 0.58333333333333337 0.29166666666666669 1.8333333333333333 70.408333333333346 1.5833333333333333 0.58333333333333337 27.991666666666671 0.83333333333333337 3.5000000000000004 12.500000000000002 inf 2.598214285714286 10.500000000000002 0.11764705363321822 0.77500000000000013 0.77500000000000013 0.58333333333333337 31.175000000000004 46.741666666666667 0.87500000000000011 0.63333333333333341 13.500000000000002 10.500000000000002 3.7500000000000004 0.63333333333333341 8.5000000000000018 0.63333333333333341 0.41666666666666669 0.77500000000000013 36.225000000000001 1.7750000000000001 10.500000000000002
decision_type=2 2 2 10 2 2 2 2 2 2 8 2 10 2 2 2 2 2 8 2 2 2 2 2 2 2 2 2 2 2 2 8 2 2 2 2 2 2 2 2
left_child=1 2 6 4 -3 8 7 31 -6 29 14 16 35 23 20 -7 -2 19 21 39 -4 -11 26 -12 27 -9 37 -24 -17 34 -25 32 -1 -34 -10 36 -8 38 -15 -18
right_child=11 3 10 -5 5 15 12 25 9 18 13 -13 -14 22 -16 28 17 -19 -20 -21 -22 -23 24 30 -26 -27 -28 -29 -30 -31 -32 -33 33 -35 -36 -37 -38 -39 -40 -41
leaf_value=0.00032024548392580512 -0.011861956093226671 -0.010916299773486076 0.01225640389627668 0.035497150765404557 -0.0077929060356247094 0 -0.00058340341640218045 -0.0046023361585519635 0.0078854886854311922 0.023553234360486692 0 0.0045938246647347003 0.047969466475637233 0.023456313134649728 0.017172772459657901 0.058257878832014193 0.0052060050855091949 -0.011291607672575215 0.018678141650393467 0.024509046431095017 -0.0034202524364429529 -0.00092149499069255731 0 0.035341386713998342 0.0049030713841889187 0.0082595065940586267 0.041864522811377418 0.066442438626436118 0.018997127777077405 -0.0082825769899486108 0.010723306891007792 0.021752076786214502 0.056643676219168763 0.011042227167312622 -0.0033657651900536943 -0.0044118043276696189 0.012665546148968719 0 0.0019837006509820887 -0.0059811776681877619
leaf_weight=13.199883672874423 208.68210901203565 84.458422173978761 15.831027467036618 7.7263531729113311 78.240133109735325 2.1972304901573798 45.420380794676021 29.703785222023726 17.255491234827787 4.0717869531363275 11.906924065900968 20.217723375419155 1.5860008471645413 38.480694914702326 30.352952210465446 2.8431612423155466 17.549114849185571 44.225242420099676 25.561285496223718 4.2831534983124584 21.569494454190135 19.482019898947328 0.2985749100334959 4.9796375453006503 1.736313836183399 18.108181048417464 6.2683421769179404 3.7180769816040993 6.1552002446260303 36.707748632645234 14.704839782090858 29.685759419575334 1.613901111995802 13.960682074539363 26.240075638750568 61.807884151116014 13.632247485220432 2.8815943715162575 5.3590441623236984 23.472366865025833
leaf_count=3410 82680 29191 4842 2622 25973 450 14365 9539 5545 1314 3175 7889 518 8089 8747 456 5920 16026 6850 1383 6598 6286 32 1268 229 5815 1293 403 988 12176 3744 7015 398 3440 8433 20432 4312 612 1127 7918
internal_value=0 0.00403035 0.00901304 -0.00210585 -0.00312786 -3.2368e-05 0.00400491 0.00909403 -0.00149651 0.00216328 0.0161363 -0.00881381 -0.000253917 0.0209234 0.00946819 0.0253834 -0.00978769 -0.00473672 0.0113079 0.00123485 0.002698 0.00248789 0.0255723 0.0116665 0.047022 0 0.0228783 0.0604112 0.0335527 -0.00319544 0.0179341 0.0163117 0.0100264 0.0170102 0.000652897 -0.00104685 0.0021474 0.0199169 0.0212729 -0.000723516
internal_weight=1016.17 697.745 386.806 310.939 303.213 218.754 228.719 106.272 207.559 129.318 158.088 318.43 122.447 90.334 67.7535 11.1956 298.212 89.5299 49.1151 45.3046 37.4005 23.5538 58.7426 31.5914 5.75297 47.812 52.9897 4.01665 8.99836 80.2033 19.6845 58.4602 28.7745 15.5746 43.4956 120.861 59.0526 46.7213 43.8397 41.0215
internal_count=338598 214352 108832 105520 104797 71196 69187 29168 68903 39765 39645 124246 40019 20119 19526 2293 118152 32444 13162 14626 11440 7600 11694 8425 760 15354 10934 435 1444 26603 5012 13814 7433 3838 13978 39953 18677 9930 9216 13838
is_linear=0
shrinkage=0.0134208


Tree=16
num_leaves=41
num_cat=0
split_feature=5 8 1 11 7 6 8 5 16 12 6 11 11 6 16 1 8 17 11 9 8 5 12 6 12 8 15 13 6 9 9 16 12 4 8 1 8 2 5 6
split_gain=195.913 115.161 70.8556 59.932 38.8449 40.7225 27.4707 35.8812 26.5956 34.7953 23.3237 23.2542 19.7612 16.5648 16.1687 15.5186 20.2645 15.2795 14.6073 13.3686 12.6243 11.2742 10.6858 10.0413 9.97758 9.36816 9.18589 8.7479 8.71926 8.17782 7.9796 7.27196 10.3099 7.27079 7.11034 7.07517 9.9252 7.13859 12.5377 14.515
threshold=0.33333331296296426 12.500000000000002 6.5000000000000009 0.5277777777777779 1.0000000180025095e-35 118.10833333333333 10.500000000000002 0.2952069575400732 0.41666666666666669 0.29166666666666669 70.408333333333346 1.8333333333333333 1.5833333333333333 27.991666666666671 0.41666666666666669 3.5000000000000004 12.500000000000002 0.83333333333333337 inf 2.598214285714286 10.500000000000002 0.11764705363321822 0.77500000000000013 31.175000000000004 0.77500000000000013 13.500000000000002 0.58333333333333337 0.87500000000000011 46.741666666666667 0.63333333333333341 0.70833333333333337 0.41666666666666669 0.77500000000000013 0.63333333333333341 11.500000000000002 11.500000000000002 10.500000000000002 0.35089750788109741 0.098780484115110159 19.125000000000004
decision_type=2 2 2 10 2 2 2 2 2 2 2 8 10 2 2 2 2 2 8 2 2 2 2 2 2 2 2 2 2 2 2 2 2 2 2 2 2 2 2 2
left_child=1 2 6 4 -3 8 7 -1 9 25 15 13 31 20 24 -2 19 -7 21 -17 -4 -11 -16 -9 28 33 27 -26 35 -19 -24 32 -8 -6 -12 36 -13 38 -37 -40
right_child=10 3 11 -5 5 17 12 23 -10 18 34 14 -14 -15 22 16 -18 29 -20 -21 -22 -23 30 -25 26 -27 -28 -29 -30 -31 -32 -33 -34 -35 -36 37 -38 -39 39 -41
leaf_value=0.015898754120198318 -0.011829051629573364 -0.010876321091443108 0.011965474520621584 0.034164489833384951 0.0077257844038947192 0 -0.00057590241031779991 -0.0045590996423255942 -0.0077420580227919467 0.022776634666104471 0.01560670995437978 0.02632944113559213 0.045812583514494271 0.016693745604189996 0 -0.00070841989345643954 -0.011254187475386345 0.0549550442310031 0.018143351080829085 0.023702840746587236 -0.0033845989658242031 -0.00090986657744554598 0.0048405819979851408 0.0080902525051579684 0 -0.0082314748936348874 0.0048180811898189792 0.062194073986871774 0.039949896634386903 0.018457938140762555 0.025490369737008536 -0.0043696362396818634 0.012360032691566178 -0.0033305623577488718 0 0 0.0099030557650964628 0.074765151383834647 0.0092723530429466676 0.066602665142526954
leaf_weight=59.215463509084657 206.46946106455289 83.636796836042777 15.997058837674556 7.9186593960039318 17.375046351924539 2.1972303565125904 45.397064476972446 29.583869845373556 77.700382485985756 4.1535115141887244 6.9561757270712432 13.498264107387511 1.6380182979628441 30.801786653697491 11.906891321530567 40.977306523360312 43.779784106649458 2.9726692556869247 25.958814153447747 4.3688055942766368 21.504610035568476 19.466301810229197 8.7096129362471419 18.238018660340458 0.29857490910217332 36.441664575133473 1.7431808863766491 3.9173244833946228 6.479122283635661 6.2493349679280072 11.258738569449633 61.568008278263733 13.780708633363247 26.16250962135382 13.34238188364543 1.8105079955421404 26.006843214388937 1.1345522112678734 3.1190524455159911 1.907026773551479
leaf_count=16136 82528 28993 4880 2693 5578 441 14328 9498 25831 1336 2088 2854 536 8805 3147 13217 15937 465 6891 1409 6560 6264 2186 5856 31 12121 222 404 1313 979 2826 20372 4349 8400 4006 381 5500 224 588 359
internal_value=0 0.003968 0.00883653 -0.00208232 -0.00309576 -3.14593e-05 0.00394176 0.00891396 -0.00147911 0.00212763 -0.00876526 0.0157301 -0.00024881 0.00926491 0.0203302 -0.00974261 -0.00469204 0.0245487 0.0110506 0.00121669 0.00264724 0.00243606 0.0114207 0 0.0247471 -0.00316168 0.0448052 0.0567487 0.0221732 0.0323211 0.0174527 -0.00103394 0.00210947 0.000637337 0.004514 0.0193396 0.0160055 0.0334352 0.0237457 0.0348753
internal_weight=1015.64 699.747 389.514 310.233 302.314 218.677 229.421 107.037 207.258 129.558 315.894 160.093 122.384 68.3035 91.7897 295.595 89.1259 11.4192 49.5786 45.3461 37.5017 23.6198 31.8752 47.8219 59.9144 79.9792 5.95908 4.2159 53.9554 9.222 19.9684 120.746 59.1778 43.5376 20.2986 47.4762 39.5051 7.97114 6.83659 5.02608
internal_count=338598 214352 108832 105520 104797 71196 69187 29168 68903 39765 124246 39645 40019 19526 20119 118152 32444 2293 13162 14626 11440 7600 8425 15354 11694 26603 760 435 10934 1444 5012 39953 18677 13978 6094 9930 8354 1576 1438 947
is_linear=0
shrinkage=0.0134208


Tree=17
num_leaves=41
num_cat=0
split_feature=5 8 13 11 1 6 8 17 12 8 3 8 5 15 8 6 6 0 5 15 11 1 1 9 17 6 9 11 14 8 6 5 6 11 16 5 6 6 9 8
split_gain=191.693 111.356 79.7293 60.3664 53.0383 33.945 31.4783 40.541 38.7605 24.2103 23.1518 22.6438 21.7421 19.087 17.3746 16.4742 16.3098 15.4975 14.3407 14.2898 12.7227 12.2357 10.6879 10.5281 9.86386 9.91382 9.8487 9.82056 9.70546 9.3326 8.53909 8.4582 18.1899 8.3556 8.20904 8.18684 7.42902 7.10289 7.09695 6.77833
threshold=0.33333331296296426 11.500000000000002 1.0000000180025095e-35 0.5277777777777779 5.5000000000000009 37.141666666666673 14.500000000000002 0.58333333333333337 0.41666666666666669 14.500000000000002 1.0000000180025095e-35 13.500000000000002 0.99999970833342011 0.58333333333333337 13.500000000000002 77.125000000000014 100.84166666666667 5.0000000000000009 0.82575750384527735 1.0000000180025095e-35 1.8333333333333333 10.500000000000002 7.5000000000000009 2.3250000000000006 0.58333333333333337 20.291666666666668 1.267857142857143 1.4166666666666667 0.87500000000000011 9.5000000000000018 26.775000000000002 0.12499999348958361 104.13333333333334 inf 1.0000000180025095e-35 0.27272725413223281 40.141666666666673 44.041666666666671 2.3250000000000006 9.5000000000000018
decision_type=2 2 2 8 2 2 2 2 2 2 2 2 2 2 2 2 2 2 2 2 8 2 2 2 2 2 2 10 2 2 2 2 2 8 2 2 2 2 2 2
left_child=1 4 5 31 19 -3 7 22 14 -7 11 12 15 23 16 18 21 28 -2 34 -6 -9 -5 -10 25 -22 -15 -12 -14 30 -27 32 -4 -8 -1 -21 -37 -38 -17 -36
right_child=10 2 3 6 20 9 33 8 13 -11 27 -13 17 26 -16 38 -18 -19 -20 35 24 -23 -24 -25 -26 29 -28 -29 -30 -31 -32 -33 -34 -35 39 36 37 -39 -40 -41
leaf_value=0.02216261108180155 -0.0018118445615644021 -0.0071716506866491246 -0.003689064080931241 -0.0076913106058365942 0.01100069878959903 0.047847580299342246 0.032476733094443856 0.0021582801222370866 0.035571848931494787 0 -0.01313295010430668 -0.013186699074379965 0 0.01936858657941147 -0.0044055904755662652 0.017192146639901269 0.036652396915136339 0 -0.013070017014044075 0.0058418567747371445 -0.0019052976537384391 0.017104894706182882 0.0026456346323411022 0 0.024049928103785711 0.048903079222107966 0 0.049330943507141622 0.047287714239083463 0.011766320907095963 0 -0.0090545541625777059 0.042964709912817867 -0.0087108965755039423 0.021299579255271154 -0.0055526164054513754 0.023790156233974957 0 -0.0024767296118482786 0.0020539043742322182
leaf_weight=10.050298001617191 76.117798907449469 2.6962711513042459 38.820181054528803 38.109786418499425 67.098308288957924 10.411031000548972 0.7228510461281985 42.716933422489092 15.499011715408416 1.7245299054775385 140.58218352426775 47.578663896536455 0.57681087055243763 12.75795190315694 24.866643558023497 9.1538453181274217 3.7774873857852072 2.0939750897232443 30.848073558881879 36.099813355365768 4.7591802931856391 14.689776799175888 30.516380910063162 0.87348122801631689 50.465373857645318 2.8356473031453828 9.4123941878788155 0.32594757666811347 3.3825350424740463 23.745663072448224 0.4749933909624815 136.9197070968803 1.5337673739995805 40.594258645549417 4.7140417157206711 39.236405617091805 3.0068886277731517 10.108908993424846 2.7615995819214731 22.474319489439949
leaf_count=2674 29056 392 14227 13514 15028 1023 288 12555 2311 170 58800 18012 146 2882 7316 2558 1072 609 11775 11417 1138 4318 10822 130 10064 328 2127 136 857 5426 55 51969 562 16186 1337 13435 917 3084 772 6375
internal_value=0 0.00390674 -0.000342265 -0.00148813 0.0105674 0.0301682 0.00292014 0.00525317 0.00985119 0.040059 -0.00871733 -0.00522869 -0.00204316 0.0211798 0.00455214 -0.00344811 0.00850906 0.0223518 -0.00523953 0.00393685 0.016017 0.00632006 -0.00281273 0.0328942 0.0198725 0.012638 0.011656 -0.0128511 0.0383255 0.0159115 0.0397971 -0.00742953 -0.0014363 -0.00752194 0.0109567 0.000762692 -0.00237003 0.00567532 0.0110095 0.00610258
internal_weight=1015.13 701.712 426.642 411.811 275.07 14.8318 234.537 193.22 124.594 12.1356 313.421 172.513 124.935 38.5428 86.0508 118.881 61.1842 6.05332 106.966 125.691 149.379 57.4067 68.6262 16.3725 82.2809 31.8155 22.1703 140.908 3.95935 27.0563 3.31064 177.274 40.3539 41.3171 37.2387 88.452 52.3522 13.1158 11.9154 27.1884
internal_count=338598 214352 143017 140863 71335 2154 73577 57103 32767 1193 124246 65310 45921 7450 25317 44161 17370 1760 40831 37879 33456 16873 24336 2441 16409 7608 5009 58936 1003 6183 383 67286 14789 16474 9906 27973 17926 4001 3330 7712
is_linear=0
shrinkage=0.0134208


Tree=18
num_leaves=41
num_cat=0
split_feature=5 8 1 11 7 16 12 8 5 3 8 5 11 13 6 6 6 11 6 0 5 16 8 12 5 6 11 13 1 6 11 3 9 8 9 9 5 11 4 8
split_gain=187.565 108.279 65.4989 54.6456 37.8336 39.109 46.3016 25.9136 33.16 23.0732 22.4367 20.7239 20.5359 18.2295 15.972 15.7096 15.6787 15.3996 14.6708 14.4083 14.2131 13.9331 11.8567 10.0816 9.95254 9.58538 9.50428 8.93666 8.50554 11.3607 8.48687 8.26034 7.51547 7.42137 6.94953 6.80761 6.77478 6.7272 8.38383 11.5799
threshold=0.33333331296296426 12.500000000000002 6.5000000000000009 0.5277777777777779 1.0000000180025095e-35 0.41666666666666669 0.29166666666666669 10.500000000000002 0.2952069575400732 1.0000000180025095e-35 13.500000000000002 0.99999970833342011 1.8333333333333333 1.0000000180025095e-35 77.125000000000014 27.991666666666671 108.075 inf 97.741666666666674 5.0000000000000009 0.82575750384527735 0.41666666666666669 10.500000000000002 0.77500000000000013 0.10762547925129702 31.175000000000004 1.4166666666666667 0.87500000000000011 11.500000000000002 46.741666666666667 inf 1.1258145800871742 0.95000000000000007 10.500000000000002 0.63333333333333341 2.3250000000000006 0.22222220370370541 3.7500000000000004 0.63333333333333341 8.5000000000000018
decision_type=2 2 2 10 2 2 2 2 2 2 2 2 8 2 2 2 2 8 2 2 2 2 2 2 2 2 10 2 2 2 8 2 2 2 2 2 2 8 2 2
left_child=1 2 7 4 34 6 18 8 37 10 11 14 15 -9 20 22 17 24 30 27 -2 28 -4 -23 -8 -10 -11 -13 29 -14 -6 32 -30 -25 -3 -16 -18 38 -1 -40
right_child=9 3 12 -5 5 -7 16 13 25 26 -12 19 21 -15 35 -17 36 -19 -20 -21 -22 23 -24 33 -26 -27 -28 -29 31 -31 -32 -33 -34 -35 -36 -37 -38 -39 39 -41
leaf_value=0 -0.0017904355171525148 0 0.011429591916360707 0.031744623566008746 -0.010018337297747598 -0.0076698771374733255 0.024898568265191125 0.035153831407289234 -0.0045087003639223289 -0.01311188494098141 -0.013165514358961516 0 0.016779394903811813 -0.0011824358241806321 0.016710498251447627 0.016115177382234259 0.041972429128930025 0.017375018394812886 0.015593497297509189 0 -0.01304824513837754 0 -0.0033643581921543922 0.032432460301262088 -0.0012114701846157084 0.0078195164920265396 0.046756020326069951 0.044788303805129291 0.017455787982248044 0.03742498259846809 -0.00021007858939409672 0 0.054530801867868454 0.010006002781376163 -0.012079165161881253 -0.002448805908038748 0.0015408576150198877 0.020191388705139996 0.051906274494852404 0.01023075203511394
leaf_weight=13.479847565293314 75.995579211041331 7.8289823587983838 16.311608767369762 8.2872200137935561 27.120359936729074 79.014968889532611 2.9030452226288643 2.5286834100261322 29.440394434612244 138.92934690229595 47.019410053733736 0.5768108956981467 43.972754696384072 120.01194350467995 9.2903545226436091 31.356129144085571 5.273290978046135 26.121769231976941 7.3371044688392431 2.0939750887919217 30.487096796743572 11.990573176648466 21.465524906292558 5.2758820077870068 19.924320178804919 18.448484786320478 0.33918932406231761 3.5223825434222817 3.5567087677773097 7.798425481421873 48.820017697056755 1.3275613866280762 5.3289859152864665 15.115341014927253 74.418108094716445 2.7556453212164342 2.0946675431914628 30.953175456728786 1.7265977391507501 14.395852148998529
leaf_count=3385 29141 3198 4940 2829 9154 25733 948 826 9439 58792 17881 141 8457 39193 2568 8856 705 6880 2408 595 11690 3120 6500 1297 6503 5915 144 862 572 1500 16477 226 858 3715 30403 762 280 7061 411 3427
internal_value=0 0.00384575 0.008516 -0.00205116 -0.0030464 -3.79971e-05 0.00414326 0.00380235 0.0085878 -0.00866986 -0.00518597 -0.00202256 0.0150569 -0.000274697 -0.00341455 0.00896134 0.0135887 0.0102558 -0.0020119 0.0214934 -0.0051954 0.0193174 0.00251119 0.0109888 0.0012613 0 -0.0128271 0.0364835 0.0233563 0.0202631 -0.0039677 0.0371408 0.0418685 0.0167575 -0.0108073 0.0107211 0.0331045 0.015189 0.00930465 0.0158942
internal_weight=1014.64 703.628 394.484 309.144 300.857 218.61 139.595 230.985 108.444 311.01 171.741 124.722 163.499 122.541 118.529 69.1333 56.3171 48.9491 83.2775 6.19317 106.483 94.3662 37.7771 32.3818 22.8274 47.8889 139.269 4.09919 61.9844 51.7712 75.9404 10.2133 8.88569 20.3912 82.2471 12.046 7.36796 60.5555 29.6023 16.1224
internal_count=338598 214352 108832 105520 104797 71196 41209 69187 29168 124246 65310 45921 39645 40019 44161 19526 13878 12893 27331 1760 40831 20119 11440 8425 7451 15354 58936 1003 11694 9957 25631 1737 1430 5012 33601 3330 985 13814 7433 3838
is_linear=0
shrinkage=0.0134208


Tree=19
num_leaves=41
num_cat=0
split_feature=5 8 1 11 7 16 12 8 5 3 8 5 11 11 6 6 6 11 6 5 0 16 8 12 5 6 11 11 13 12 9 5 15 13 9 17 12 9 1 11
split_gain=183.585 104.659 62.4361 52.2663 37.2881 38.2077 44.5918 25.0217 31.7275 22.9925 22.2302 19.7713 19.3428 17.5329 15.4884 14.9067 14.6348 14.6148 14.1839 14.0861 13.4332 12.8464 11.4429 9.57312 9.48929 9.30135 9.21654 8.36109 8.26222 7.89091 7.7806 8.74188 7.28528 7.42718 7.14989 6.91297 9.6342 6.9097 6.78314 6.6239
threshold=0.33333331296296426 12.500000000000002 6.5000000000000009 0.5277777777777779 1.0000000180025095e-35 0.41666666666666669 0.29166666666666669 10.500000000000002 0.2952069575400732 1.0000000180025095e-35 13.500000000000002 0.99999970833342011 1.8333333333333333 1.5833333333333333 77.125000000000014 27.991666666666671 108.075 inf 97.741666666666674 0.82575750384527735 5.0000000000000009 0.41666666666666669 10.500000000000002 0.77500000000000013 0.10762547925129702 31.175000000000004 1.4166666666666667 3.7500000000000004 0.87500000000000011 0.77500000000000013 1.7750000000000001 0.27272725413223281 0.58333333333333337 0.87500000000000011 0.70833333333333337 0.58333333333333337 0.77500000000000013 0.63333333333333341 8.5000000000000018 1.0000000180025095e-35
decision_type=2 2 2 10 2 2 2 2 2 2 2 2 8 10 2 2 2 8 2 2 2 2 2 2 2 2 10 8 2 2 2 2 2 2 2 2 2 2 2 8
left_child=1 2 7 4 37 6 18 8 -1 10 11 14 15 35 19 22 17 24 27 -2 28 29 -4 -23 -8 -10 -11 -6 -13 30 31 -14 33 -31 -25 -9 -37 -3 -7 -40
right_child=9 3 12 -5 5 38 16 13 25 26 -12 20 21 -15 -16 -17 -18 -19 -20 -21 -22 23 -24 34 -26 -27 -28 -29 -30 32 -32 -33 -34 -35 -36 36 -38 -39 39 -41
leaf_value=0.014820550501846592 -0.0017692281012235199 0 0.011166896875517422 0.030660511502699932 -0.0099732216875310867 -0.010615143557505535 0.024057427907508169 -0.0043080633420992378 -0.0044659987311983507 -0.01309077375025839 -0.013144334974908035 0 0.023254282658264316 0.041714641055695542 0.010443084089884931 0.015681356425946154 0.031958486185461162 0.016898468557712432 0.015185750830712986 -0.013026461750751542 0 0 -0.0033291268601381555 0.0043721573027028842 -0.0011964889580879051 0.0076623857094160865 0.044426018165647223 -0.00020727352042242887 0.042524210609030715 0 0.0012282416027234609 0 0.003921026839512981 0.055020563507969363 0.023742861019397356 -0.00060079636630642401 0.011800953348999254 -0.012047983979474661 -0.0099601597678120428 0.0030517792538761867
leaf_weight=61.273812134750187 75.875034489203244 7.8293314643669865 16.47007118165493 8.4638646906241757 26.879100381629542 50.769412824651226 2.9637891063466695 61.211183916311711 29.323864278383553 137.29686262784526 46.466841721441597 0.576810899423437 48.707120721694082 1.7454042024910448 12.174411341082303 31.788148054620251 7.5364004562143236 26.495386699680239 7.4323414349928498 30.13074536412023 2.0939751158002764 11.990567117463796 21.401973180472851 8.910201303893702 19.903164694318548 18.573278580792248 0.35209701652638614 48.810871981084347 3.6591705915052444 0.30933797918260264 5.597609855234623 2.366103342268616 1.8185724928043783 4.3043085266835988 11.752229615813121 45.467956486390904 14.05744992941618 73.614808697951958 11.033176150172952 16.674345448613167
leaf_count=16371 29225 3230 4975 2896 9102 19400 966 20255 9400 58785 17749 137 8993 570 4549 8910 1838 6920 2444 11606 582 3094 6465 2161 6485 5954 151 16529 866 29 1080 437 215 406 2851 14266 4411 30371 3918 5920
internal_value=0 0.00378785 0.00835316 -0.00202719 -0.0030141 -3.58382e-05 0.00407616 0.00374331 0.00842227 -0.00862241 -0.0051435 -0.00200219 0.0146919 -0.000269154 -0.00338127 0.00877332 0.0132766 0.0100323 -0.00198891 -0.0051515 0.0206879 0.0187955 0.00246403 0.0107639 0.00123039 0 -0.0128031 -0.00393104 0.0347959 0.0226448 0.0203078 0.02202 0.0402261 0.0503421 0.0163263 -0.00103637 0.00200288 -0.0107666 -0.00761919 -0.00143116
internal_weight=1014.1 705.475 397.069 308.406 299.942 218.498 140.021 231.653 109.171 308.626 170.977 124.51 165.416 122.482 118.18 69.6602 56.8987 49.3623 83.1223 106.006 6.32996 95.7561 37.872 32.653 22.867 47.8971 137.649 75.69 4.23598 63.1031 56.6708 51.0732 6.43222 4.61365 20.6624 120.737 59.5254 81.4441 78.4769 27.7075
internal_count=338598 214352 108832 105520 104797 71196 41209 69187 29168 124246 65310 45921 39645 40019 44161 19526 13878 12893 27331 40831 1760 20119 11440 8425 7451 15354 58936 25631 1003 11694 10934 9430 760 435 5012 39953 18677 33601 29987 9838
is_linear=0
shrinkage=0.0134208


Tree=20
num_leaves=41
num_cat=0
split_feature=5 8 14 11 1 6 8 16 12 4 8 8 5 8 15 6 6 5 15 0 8 1 1 13 5 9 9 11 5 6 13 11 17 5 9 6 6 1 6 9
split_gain=179.617 101.302 71.2183 57.324 46.7009 29.5486 28.6973 36.1497 33.2987 22.916 22.0316 21.3604 18.875 16.2106 16.2001 15.0709 14.5373 13.9589 13.5193 12.5564 11.6353 11.1359 10.3301 9.9503 11.1906 9.35808 8.97991 8.9534 8.39147 16.3575 7.66679 7.57796 7.38062 7.36838 7.31831 7.1186 7.08902 7.40381 6.65872 6.44668
threshold=0.33333331296296426 11.500000000000002 1.0000000180025095e-35 0.5277777777777779 5.5000000000000009 37.141666666666673 14.500000000000002 0.41666666666666669 0.41666666666666669 0.91666666666666685 13.500000000000002 14.500000000000002 0.99999970833342011 13.500000000000002 0.58333333333333337 77.125000000000014 100.84166666666667 0.82575750384527735 1.0000000180025095e-35 5.0000000000000009 9.5000000000000018 10.500000000000002 7.5000000000000009 1.0000000180025095e-35 0.17647058044982733 2.3250000000000006 1.267857142857143 1.4166666666666667 0.12499999348958361 104.13333333333334 0.87500000000000011 inf 0.83333333333333337 0.26666665333333411 1.7750000000000001 40.141666666666673 33.925000000000004 9.5000000000000018 44.041666666666671 2.3250000000000006
decision_type=2 2 2 8 2 2 2 2 2 2 2 2 2 2 2 2 2 2 2 2 2 2 2 2 2 2 2 10 2 2 2 8 2 2 2 2 2 2 2 2
left_child=1 4 5 28 18 -3 7 8 13 27 12 -7 15 16 25 17 21 -11 32 30 36 -5 -9 -22 34 -10 -16 -2 29 -4 -14 -8 -1 -20 -25 -35 37 -6 -37 -17
right_child=9 2 3 6 20 11 31 22 14 10 -12 -13 19 -15 26 39 -18 -19 33 -21 23 -23 -24 24 -26 -27 -28 -29 -30 -31 -32 -33 -34 35 -36 38 -38 -39 -40 -41
leaf_value=0.0058507679952337372 -0.013069638663137316 -0.0071317461401574243 -0.0035711420021927306 0.0019481690767214259 0.026526177022920591 0.043493996895992711 0.028935890538474764 -0.0075704418581393901 0.032326100198816494 -0.0017482945251477097 -0.013123150445534641 0 0 -0.0044024489419831085 0.01782662699002184 0.015965413401683021 0.033968608150377562 -0.013004539422001925 0.0054200826119640659 0 0.051362762418727038 0.016033537690423805 0.0026266188839953329 0.017641423124377931 0.0076357884925024305 0 0 0.042307054269326988 -0.0089576103887562108 0.039325846951430182 0.040463330247420597 -0.0085380093703239131 0.020993726245912128 -0.0054820093468315005 0 0.022716562559952896 0 0 0 -0.0025387277202328965
leaf_weight=27.504717444768175 135.68374058115296 2.6784381817560652 38.409546184819192 43.22417813190259 26.436796553432949 11.118214626796542 0.77827337407507002 37.495020084781572 16.503864343976606 75.756177545292303 45.920900557888672 1.7743406372610477 0.57681087986566293 24.853083628229797 13.324220017762858 9.5093712739180756 3.9749326570890844 29.778436977881938 36.816476275445893 2.0939750804100186 1.5127544808201481 15.183717596111819 30.547679897630587 58.676189854275435 62.361412328900769 0.89699040120467544 9.6446002372540516 0.36468151141889393 134.70061150961556 1.6346404531504957 3.792990118265152 39.496274285484105 10.363894021138549 38.946036266395822 2.8365298097487539 3.0910710869356999 0.98541034734807909 1.423829868203029 10.154938657768069 2.7749031044077128
leaf_count=7195 58778 371 14185 12487 4718 1029 318 13410 2315 29310 17621 164 132 7213 2906 2578 1107 11521 11570 570 340 4386 10926 12504 14146 126 2103 158 51867 604 871 16156 2711 13376 604 934 179 254 3067 752
internal_value=0 0.00372894 -0.000351921 -0.00146494 0.00998545 0.0277599 0.00279126 0.00497434 0.00922247 -0.00857458 -0.00510021 0.0365097 -0.00198013 0.00427137 0.0194421 -0.00334645 0.0080372 -0.00510781 0.00374893 0.0199307 0.0149904 0.00594113 -0.00270808 0.0128679 0.0122416 0.0299039 0.0106738 -0.012779 -0.00732198 -0.00133678 0.0332437 -0.00733336 0.0105061 0.000656674 0.0165964 -0.00233267 0.0235452 0.024896 0.00546608 0.0102102
internal_weight=1013.6 707.349 426.239 410.668 281.11 15.571 235.923 195.648 127.606 306.252 170.204 12.8926 124.283 87.2359 40.3697 117.819 62.3828 105.535 126.877 6.46378 154.233 58.4079 68.0427 125.387 123.874 17.4009 22.9688 136.048 174.745 40.0442 4.3698 40.2745 37.8686 89.0085 61.5127 52.192 28.846 27.8606 13.246 12.2843
internal_count=338598 214352 143017 140863 71335 2154 73577 57103 32767 124246 65310 1193 45921 25317 7450 44161 17370 40831 37879 1760 33456 16873 24336 28222 28099 2441 5009 58936 67286 14789 1003 16474 9906 27973 13108 17926 5234 4972 4001 3330
is_linear=0
shrinkage=0.0134208


Tree=21
num_leaves=41
num_cat=0
split_feature=5 8 1 11 8 16 12 11 3 8 1 17 8 5 6 5 6 0 6 1 8 6 10 8 5 11 6 6 5 9 5 11 3 6 8 11 2 6 1 14
split_gain=175.746 98.4206 57.5942 47.9273 36.3087 36.6885 41.9129 26.6069 22.8319 21.8264 18.0747 17.689 14.5639 13.7015 13.4054 13.2642 13.1467 11.7647 11.5177 12.0884 13.241 11.2178 10.8906 11.7787 16.2308 10.8401 10.8203 10.3786 10.0395 9.90618 9.5689 8.71166 8.67534 8.36419 11.0003 8.10927 7.58711 7.54937 7.44742 7.13803
threshold=0.33333331296296426 12.500000000000002 5.5000000000000009 0.5277777777777779 14.500000000000002 0.41666666666666669 0.29166666666666669 1.8333333333333333 1.0000000180025095e-35 13.500000000000002 2.5000000000000004 0.58333333333333337 10.500000000000002 0.23076921745562212 97.741666666666674 0.99999970833342011 72.875000000000014 5.0000000000000009 45.791666666666671 11.500000000000002 10.500000000000002 29.758333333333336 0.41666666666666669 10.500000000000002 0.27272725413223281 inf 70.408333333333346 31.175000000000004 0.13333332666666703 0.95000000000000007 0.24999999032738127 1.4166666666666667 0.94462321136918936 20.291666666666668 9.5000000000000018 3.7500000000000004 0.35089750788109741 26.775000000000002 7.5000000000000009 0.87500000000000011
decision_type=2 2 2 10 2 2 2 8 2 2 2 2 2 2 2 2 2 2 2 2 2 2 2 2 2 8 2 2 2 2 2 10 2 2 2 8 2 2 2 2
left_child=1 2 22 4 5 6 14 12 9 10 -2 33 -4 16 35 26 25 39 19 20 -13 -14 23 24 -1 -8 -12 -26 32 -30 -31 -10 36 -9 37 -3 -21 -35 -23 -17
right_child=8 3 7 -5 -6 -7 13 11 31 -11 15 18 21 -15 -16 17 -18 -19 -20 28 -22 38 -24 -25 27 -27 -28 -29 29 30 -32 -33 -34 34 -36 -37 -38 -39 -40 -41
leaf_value=0.012177924344288741 -0.010908325767048335 -0.0098955877325202501 0.01354270140019413 0.028663604862925116 -0.01069678897875901 -0.0075371986360930187 0.00015183704574045365 -0.0030188382494635009 -0.013048529304414603 -0.013101973380133603 -0.0022799552985498872 0.023005049051121083 -0.0029884571992446962 0.0012157102119443831 0.014518198157307627 0 0.030428366481812946 0 0.033482846566502293 0.0088990104034657319 0.0090739168975790072 0.00089415701938845105 0.041094853267989812 -0.0019838806504379608 -0.0052765104726743683 0.018217198087582778 0.012709960583351915 0.0077141775121556452 0 0.062477386701919872 0 0.040371245502677185 0 0.043978087140226239 0.0085979344986113534 -0.00022491764974669223 0.089934091643696701 0 0.014847402200330123 0.038579142368655603
leaf_weight=33.913468213519081 30.869980962248519 26.472840891452506 37.464413040317595 8.8027766312006843 80.095668174792081 77.606947620399296 12.585722091607753 6.408791971160098 134.09016070421785 45.381462896242738 76.940927672898397 24.822543977526948 30.203233068576083 16.707883259281516 7.5902955811470747 0.5768108919728564 11.303438005270435 2.0939751120749861 13.093239193782209 2.0113053603563489 39.242617820622399 18.047167069977149 1.2971293039154259 83.307095213793218 27.55957992747426 17.258170477580279 9.6673855914268625 18.519498378504068 0.74328799033537585 3.8974532198626557 0.32631651521660388 0.37695307494141161 2.5308774646837264 3.0610283138230447 38.700779834529385 48.865181266563013 0.45642830454744399 0.49596583400852978 15.778702507261187 3.9239292128477246
leaf_count=9762 11425 9006 10535 3023 28121 25300 3162 1686 58771 17491 27788 4945 9395 4008 2502 129 2487 559 2452 332 7817 5136 403 26084 8904 4335 3492 5984 91 406 34 165 515 330 9928 16625 75 53 4490 874
internal_value=0 0.00367081 0.0080524 -0.00199657 -0.00296562 -4.15642e-05 0.00395295 0.0122987 -0.00852722 -0.00505826 -0.00196018 0.0162902 0.00676762 0.0127667 -0.00196263 0.000795923 0.0169867 0.0192172 0.0201086 0.0174818 0.0147737 0.00250119 0.00181336 0.00138284 0.00513098 0.0112471 -0.000383311 0 0.0329489 0.0485453 0.0565137 -0.0127549 0.0135796 0.0090568 0.0113461 -0.00387994 0.0317291 0.0358066 0.00797501 0.031811
internal_weight=1013.09 709.17 401.881 307.289 298.486 218.39 140.784 237.284 303.922 169.454 124.073 135.791 101.494 57.8552 82.9283 93.203 41.1473 6.59472 87.1241 74.0308 64.0652 64.0291 164.597 163.3 79.9925 29.8439 86.6083 46.0791 9.96567 4.96706 4.22377 134.467 4.99861 48.6666 42.2578 75.338 2.46773 3.55699 33.8259 4.50074
internal_count=338598 214352 108832 105520 104797 71196 41209 57657 124246 65310 45921 29117 28540 13878 27331 33040 9052 1760 16316 14384 12762 19917 51175 51130 23027 7497 31280 14888 1622 605 440 58936 1017 12801 10841 25631 407 383 9626 1003
is_linear=0
shrinkage=0.0134208


Tree=22
num_leaves=41
num_cat=0
split_feature=5 8 1 11 7 17 12 8 5 3 8 1 11 13 6 5 6 5 6 0 17 6 11 8 12 6 11 11 9 1 13 5 9 11 1 6 3 16 6 17
split_gain=171.984 95.1294 55.4491 45.961 35.7944 35.8593 40.444 22.8595 28.1811 22.7525 21.6295 17.7802 16.6481 15.362 13.8219 12.99 12.9723 12.5872 12.0739 11.0471 10.753 10.4444 10.2406 10.1283 9.00161 8.64241 8.48857 7.98799 6.93901 6.74116 6.666 6.53776 6.50227 6.44628 6.36938 8.69772 6.82776 6.14212 6.76089 6.09335
